{"learner":{"attributes":{"scikit_learn":"{\"_estimator_type\": \"regressor\"}"},"feature_names":["storey_range","floor_area_sqm","lease_commence_date","postal","year","month_num","remaining_lease_months","flat_type_2 ROOM","flat_type_3 ROOM","flat_type_4 ROOM","flat_type_5 ROOM","flat_type_EXECUTIVE","flat_type_MULTI-GENERATION"],"feature_types":["int","float","int","int","int","int","int","i","i","i","i","i","i"],"gradient_booster":{"model":{"gbtree_model_param":{"num_parallel_tree":"1","num_trees":"500"},"iteration_indptr":[0,1,2,3,4,5,6,7,8,9,10,11,12,13,14,15,16,17,18,19,20,21,22,23,24,25,26,27,28,29,30,31,32,33,34,35,36,37,38,39,40,41,42,43,44,45,46,47,48,49,50,51,52,53,54,55,56,57,58,59,60,61,62,63,64,65,66,67,68,69,70,71,72,73,74,75,76,77,78,79,80,81,82,83,84,85,86,87,88,89,90,91,92,93,94,95,96,97,98,99,100,101,102,103,104,105,106,107,108,109,110,111,112,113,114,115,116,117,118,119,120,121,122,123,124,125,126,127,128,129,130,131,132,133,134,135,136,137,138,139,140,141,142,143,144,145,146,147,148,149,150,151,152,153,154,155,156,157,158,159,160,161,162,163,164,165,166,167,168,169,170,171,172,173,174,175,176,177,178,179,180,181,182,183,184,185,186,187,188,189,190,191,192,193,194,195,196,197,198,199,200,201,202,203,204,205,206,207,208,209,210,211,212,213,214,215,216,217,218,219,220,221,222,223,224,225,226,227,228,229,230,231,232,233,234,235,236,237,238,239,240,241,242,243,244,245,246,247,248,249,250,251,252,253,254,255,256,257,258,259,260,261,262,263,264,265,266,267,268,269,270,271,272,273,274,275,276,277,278,279,280,281,282,283,284,285,286,287,288,289,290,291,292,293,294,295,296,297,298,299,300,301,302,303,304,305,306,307,308,309,310,311,312,313,314,315,316,317,318,319,320,321,322,323,324,325,326,327,328,329,330,331,332,333,334,335,336,337,338,339,340,341,342,343,344,345,346,347,348,349,350,351,352,353,354,355,356,357,358,359,360,361,362,363,364,365,366,367,368,369,370,371,372,373,374,375,376,377,378,379,380,381,382,383,384,385,386,387,388,389,390,391,392,393,394,395,396,397,398,399,400,401,402,403,404,405,406,407,408,409,410,411,412,413,414,415,416,417,418,419,420,421,422,423,424,425,426,427,428,429,430,431,432,433,434,435,436,437,438,439,440,441,442,443,444,445,446,447,448,449,450,451,452,453,454,455,456,457,458,459,460,461,462,463,464,465,466,467,468,469,470,471,472,473,474,475,476,477,478,479,480,481,482,483,484,485,486,487,488,489,490,491,492,493,494,495,496,497,498,499,500],"tree_info":[0,0,0,0,0,0,0,0,0,0,0,0,0,0,0,0,0,0,0,0,0,0,0,0,0,0,0,0,0,0,0,0,0,0,0,0,0,0,0,0,0,0,0,0,0,0,0,0,0,0,0,0,0,0,0,0,0,0,0,0,0,0,0,0,0,0,0,0,0,0,0,0,0,0,0,0,0,0,0,0,0,0,0,0,0,0,0,0,0,0,0,0,0,0,0,0,0,0,0,0,0,0,0,0,0,0,0,0,0,0,0,0,0,0,0,0,0,0,0,0,0,0,0,0,0,0,0,0,0,0,0,0,0,0,0,0,0,0,0,0,0,0,0,0,0,0,0,0,0,0,0,0,0,0,0,0,0,0,0,0,0,0,0,0,0,0,0,0,0,0,0,0,0,0,0,0,0,0,0,0,0,0,0,0,0,0,0,0,0,0,0,0,0,0,0,0,0,0,0,0,0,0,0,0,0,0,0,0,0,0,0,0,0,0,0,0,0,0,0,0,0,0,0,0,0,0,0,0,0,0,0,0,0,0,0,0,0,0,0,0,0,0,0,0,0,0,0,0,0,0,0,0,0,0,0,0,0,0,0,0,0,0,0,0,0,0,0,0,0,0,0,0,0,0,0,0,0,0,0,0,0,0,0,0,0,0,0,0,0,0,0,0,0,0,0,0,0,0,0,0,0,0,0,0,0,0,0,0,0,0,0,0,0,0,0,0,0,0,0,0,0,0,0,0,0,0,0,0,0,0,0,0,0,0,0,0,0,0,0,0,0,0,0,0,0,0,0,0,0,0,0,0,0,0,0,0,0,0,0,0,0,0,0,0,0,0,0,0,0,0,0,0,0,0,0,0,0,0,0,0,0,0,0,0,0,0,0,0,0,0,0,0,0,0,0,0,0,0,0,0,0,0,0,0,0,0,0,0,0,0,0,0,0,0,0,0,0,0,0,0,0,0,0,0,0,0,0,0,0,0,0,0,0,0,0,0,0,0,0,0,0,0,0,0,0,0,0,0,0,0,0,0,0,0,0,0,0,0,0,0,0,0,0,0,0,0,0,0,0,0,0,0,0,0,0,0,0,0,0,0,0,0,0,0,0,0,0,0,0,0,0,0,0,0,0,0,0,0,0,0],"trees":[{"base_weights":[1.9518008E2,4.748937E4,-1.5078758E5,-1.7996145E4,1.26052055E5,-1.7873486E5,-4.478747E4,1.4046683E5,-4.56375E4,3.032455E5,9.951738E4,-2.1725688E5,-1.2979478E5,9.675567E4,-9.321448E4,9.526222E3,2.422133E5,-6.669863E4,1.16096734E5,4.588984E4,3.9341906E5,7.752235E4,3.1634634E5,-2.0524845E5,-2.4855355E5,-1.5022058E5,-1.0644476E5,4.2569594E4,1.6928492E5,-1.6217403E5,-4.101285E4,-5.384837E4,1.5669389E5,1.893176E5,3.121183E5,-1.0385911E5,-5.7436357E3,1.6820369E5,6.4813266E4,-3.2533682E4,2.5586744E5,3.2210297E5,4.6936197E5,3.4123355E4,1.5773561E5,3.4623684E5,2.038546E5,-2.4665903E5,-1.986288E5,-2.5697622E5,-2.1085005E5,-1.9783425E5,-1.4460688E5,-1.6508478E5,-9.974983E4,-2.3120367E4,5.9061867E4,1.2382493E5,1.9382545E5,-1.769654E5,-1.2663922E5,-7.2331336E4,-7.5995996E3,-4.282697E3,1.3719893E4,6.984345E3,1.2545562E4,7.7373823E3,1.3109388E4,1.3244647E4,1.9982104E4,-6.3873315E3,-3.0705535E3,-1.6024733E3,5.021091E3,6.888113E3,1.3817091E4,2.3205974E3,6.4346987E3,8.26359E2,-1.1611593E4,1.1772648E4,1.892552E4,1.3899604E4,2.0419156E4,2.1351068E4,3.601756E4,2.3462012E3,-8.999858E3,6.2428047E3,1.2235775E4,1.961206E4,1.4815939E4,8.991205E3,1.222849E4,-1.0782922E4,-1.3206495E4,-8.889063E3,-1.0704614E4,-1.4570349E4,-1.2514679E4,-1.2484795E4,-1.0191946E4,7.827294E3,-9.931566E3,-6.711008E3,-8.454608E3,-7.4519165E3,-9.675724E3,-4.389203E3,-6.322929E3,-2.713835E3,2.8043668E2,1.5745547E3,4.550332E3,4.716122E3,8.738955E3,7.827599E3,1.1044111E4,-7.3028022E3,-9.35144E3,-4.9883047E3,-7.054176E3,-1.7157448E3,-4.14159E3,1.7621045E3,-1.0997338E3],"categories":[],"categories_nodes":[],"categories_segments":[],"categories_sizes":[],"default_left":[0,0,0,0,0,0,0,0,0,0,0,0,0,0,0,0,0,0,0,0,0,0,0,0,0,0,0,0,0,0,0,0,0,0,0,0,0,0,0,0,0,0,0,0,0,0,0,0,0,0,0,0,0,0,0,0,0,0,0,0,0,0,0,0,0,0,0,0,0,0,0,0,0,0,0,0,0,0,0,0,0,0,0,0,0,0,0,0,0,0,0,0,0,0,0,0,0,0,0,0,0,0,0,0,0,0,0,0,0,0,0,0,0,0,0,0,0,0,0,0,0,0,0,0,0,0,0],"id":0,"left_children":[1,3,5,7,9,11,13,15,17,19,21,23,25,27,29,31,33,35,37,39,41,43,45,47,49,51,53,55,57,59,61,63,65,67,69,71,73,75,77,79,81,83,85,87,89,91,93,95,97,99,101,103,105,107,109,111,113,115,117,119,121,123,125,-1,-1,-1,-1,-1,-1,-1,-1,-1,-1,-1,-1,-1,-1,-1,-1,-1,-1,-1,-1,-1,-1,-1,-1,-1,-1,-1,-1,-1,-1,-1,-1,-1,-1,-1,-1,-1,-1,-1,-1,-1,-1,-1,-1,-1,-1,-1,-1,-1,-1,-1,-1,-1,-1,-1,-1,-1,-1,-1,-1,-1,-1,-1,-1],"loss_changes":[9.8451844E14,5.4014106E14,9.7416905E13,2.5081711E14,2.2438063E14,4.9035977E13,4.7051526E13,1.1330765E14,1.66089E14,1.442346E14,1.9796236E14,5.4213225E12,5.452159E12,6.870424E12,1.8402731E13,3.4703726E13,1.7637954E13,9.771656E13,1.5001666E13,2.658636E13,2.4778472E13,1.3120704E14,1.2784004E13,2.837262E12,1.2265487E12,1.6053279E12,2.0850682E12,1.08799223E12,8.1047794E11,1.1355071E12,3.0467194E12,2.7178081E13,1.7595881E12,6.829065E12,8.4088245E12,2.7167782E13,4.5637077E13,9.133105E12,3.3241883E12,1.1525538E13,1.0099968E12,8.933079E12,2.3358784E13,6.7050513E13,3.7813966E13,6.8167506E12,7.436375E11,7.2674705E11,2.8900768E12,6.845272E11,1.5118998E11,2.124394E11,1.3689453E12,2.2069903E11,1.5251706E12,1.811133E11,7.0348964E11,3.8188247E11,4.535343E11,4.557447E11,2.386192E11,5.9714096E11,8.7033545E11,0E0,0E0,0E0,0E0,0E0,0E0,0E0,0E0,0E0,0E0,0E0,0E0,0E0,0E0,0E0,0E0,0E0,0E0,0E0,0E0,0E0,0E0,0E0,0E0,0E0,0E0,0E0,0E0,0E0,0E0,0E0,0E0,0E0,0E0,0E0,0E0,0E0,0E0,0E0,0E0,0E0,0E0,0E0,0E0,0E0,0E0,0E0,0E0,0E0,0E0,0E0,0E0,0E0,0E0,0E0,0E0,0E0,0E0,0E0,0E0,0E0,0E0,0E0,0E0],"parents":[2147483647,0,0,1,1,2,2,3,3,4,4,5,5,6,6,7,7,8,8,9,9,10,10,11,11,12,12,13,13,14,14,15,15,16,16,17,17,18,18,19,19,20,20,21,21,22,22,23,23,24,24,25,25,26,26,27,27,28,28,29,29,30,30,31,31,32,32,33,33,34,34,35,35,36,36,37,37,38,38,39,39,40,40,41,41,42,42,43,43,44,44,45,45,46,46,47,47,48,48,49,49,50,50,51,51,52,52,53,53,54,54,55,55,56,56,57,57,58,58,59,59,60,60,61,61,62,62],"right_children":[2,4,6,8,10,12,14,16,18,20,22,24,26,28,30,32,34,36,38,40,42,44,46,48,50,52,54,56,58,60,62,64,66,68,70,72,74,76,78,80,82,84,86,88,90,92,94,96,98,100,102,104,106,108,110,112,114,116,118,120,122,124,126,-1,-1,-1,-1,-1,-1,-1,-1,-1,-1,-1,-1,-1,-1,-1,-1,-1,-1,-1,-1,-1,-1,-1,-1,-1,-1,-1,-1,-1,-1,-1,-1,-1,-1,-1,-1,-1,-1,-1,-1,-1,-1,-1,-1,-1,-1,-1,-1,-1,-1,-1,-1,-1,-1,-1,-1,-1,-1,-1,-1,-1,-1,-1,-1],"split_conditions":[1E0,2.022E3,2.001E3,4.40077E5,4.00305E5,2.022E3,5.10112E5,1.993E3,1E0,1.984E3,1E0,5.72273E5,2.024E3,2.023E3,2.022E3,1E0,5E0,1E0,6.10121E5,1E0,2.01E3,1E0,8.98E2,1.972E3,2.021E3,1.972E3,1.972E3,2.011E3,2.024E3,2.021E3,2.024E3,1E0,4.05002E5,1E0,1E0,2.005E3,2.006E3,5.5022E5,2.021E3,1E0,1.982E3,1E0,1E0,1E0,2.009E3,6.00036E5,2.024E3,1.65006E5,4.40077E5,1.979E3,1.979E3,1.40056E5,5.72273E5,3.10169E5,5.72273E5,2.02E3,5E0,6E0,4E0,6.00209E5,6.52451E5,5.70113E5,5.70113E5,-4.282697E3,1.3719893E4,6.984345E3,1.2545562E4,7.7373823E3,1.3109388E4,1.3244647E4,1.9982104E4,-6.3873315E3,-3.0705535E3,-1.6024733E3,5.021091E3,6.888113E3,1.3817091E4,2.3205974E3,6.4346987E3,8.26359E2,-1.1611593E4,1.1772648E4,1.892552E4,1.3899604E4,2.0419156E4,2.1351068E4,3.601756E4,2.3462012E3,-8.999858E3,6.2428047E3,1.2235775E4,1.961206E4,1.4815939E4,8.991205E3,1.222849E4,-1.0782922E4,-1.3206495E4,-8.889063E3,-1.0704614E4,-1.4570349E4,-1.2514679E4,-1.2484795E4,-1.0191946E4,7.827294E3,-9.931566E3,-6.711008E3,-8.454608E3,-7.4519165E3,-9.675724E3,-4.389203E3,-6.322929E3,-2.713835E3,2.8043668E2,1.5745547E3,4.550332E3,4.716122E3,8.738955E3,7.827599E3,1.1044111E4,-7.3028022E3,-9.35144E3,-4.9883047E3,-7.054176E3,-1.7157448E3,-4.14159E3,1.7621045E3,-1.0997338E3],"split_indices":[8,4,2,3,3,4,3,2,11,2,11,3,4,4,4,10,0,10,3,10,2,10,6,2,4,2,2,2,4,4,4,11,3,10,10,2,2,3,4,7,2,10,10,7,2,3,4,3,3,2,2,3,3,3,3,4,0,0,0,3,3,3,3,0,0,0,0,0,0,0,0,0,0,0,0,0,0,0,0,0,0,0,0,0,0,0,0,0,0,0,0,0,0,0,0,0,0,0,0,0,0,0,0,0,0,0,0,0,0,0,0,0,0,0,0,0,0,0,0,0,0,0,0,0,0,0,0],"split_type":[0,0,0,0,0,0,0,0,0,0,0,0,0,0,0,0,0,0,0,0,0,0,0,0,0,0,0,0,0,0,0,0,0,0,0,0,0,0,0,0,0,0,0,0,0,0,0,0,0,0,0,0,0,0,0,0,0,0,0,0,0,0,0,0,0,0,0,0,0,0,0,0,0,0,0,0,0,0,0,0,0,0,0,0,0,0,0,0,0,0,0,0,0,0,0,0,0,0,0,0,0,0,0,0,0,0,0,0,0,0,0,0,0,0,0,0,0,0,0,0,0,0,0,0,0,0,0],"sum_hessian":[1.37874E5,1.04988E5,3.2886E4,5.726E4,4.7728E4,2.6024E4,6.862E3,8.504E3,4.8756E4,6.215E3,4.1513E4,1.456E4,1.1464E4,1.749E3,5.113E3,3.719E3,4.785E3,4.3139E4,5.617E3,1.613E3,4.602E3,3.7691E4,3.822E3,1.0528E4,4.032E3,6.112E3,5.352E3,1.002E3,7.47E2,2.202E3,2.911E3,2.6E3,1.119E3,2.726E3,2.059E3,2.68E4,1.6339E4,2.785E3,2.832E3,1.175E3,4.38E2,2.376E3,2.226E3,2.4459E4,1.3232E4,3.018E3,8.04E2,1.446E3,9.082E3,3.291E3,7.41E2,6.41E2,5.471E3,5.46E2,4.806E3,2.01E2,8.01E2,2.64E2,4.83E2,1.552E3,6.5E2,1.502E3,1.409E3,2.371E3,2.29E2,9.5E2,1.69E2,1.851E3,8.75E2,1.34E3,7.19E2,1.7148E4,9.652E3,1.3095E4,3.244E3,2.175E3,6.1E2,2.2E3,6.32E2,9.44E2,2.31E2,3.78E2,6E1,1.575E3,8.01E2,1.907E3,3.19E2,2.308E4,1.379E3,9.604E3,3.628E3,1.567E3,1.451E3,5.09E2,2.95E2,5.26E2,9.2E2,3.873E3,5.209E3,5.28E2,2.763E3,1.08E2,6.33E2,1E0,6.4E2,3.846E3,1.625E3,3.53E2,1.93E2,3.322E3,1.484E3,9.6E1,1.05E2,4.31E2,3.7E2,1.69E2,9.5E1,2.06E2,2.77E2,3.85E2,1.167E3,2.3E2,4.2E2,3.26E2,1.176E3,3.54E2,1.055E3],"tree_param":{"num_deleted":"0","num_feature":"13","num_nodes":"127","size_leaf_vector":"1"}},{"base_weights":[-4.676269E2,-1.4002328E5,5.6945504E4,-1.6405267E5,-5.997822E4,2.3448297E5,2.8869688E4,-1.8080747E5,-1.0328145E5,1.2365216E5,-1.1187979E5,1.5559552E5,3.6347884E5,-2.178479E4,1.1065148E5,-2.515491E5,-1.7624047E5,-8.2418016E4,-1.4888416E5,9.163611E4,2.987948E5,-8.123794E4,-1.9918306E5,2.516358E5,6.5430492E4,4.7985825E5,3.2847206E5,-5.5485754E4,3.6209566E4,7.894306E4,2.1027495E5,-2.2187152E5,-2.6301928E5,-1.6793425E5,-2.0571895E5,-1.14532266E5,-5.6954375E4,-1.12063375E5,-1.8626823E5,6.957259E4,1.97162E5,2.5071581E5,3.3002975E5,-8.565194E4,1.626082E5,-2.2822492E5,-1.6103295E5,2.25938E5,3.6067388E5,5.8799263E3,1.646161E5,3.67357E5,5.3062825E5,3.026718E5,4.4353494E5,-2.6462635E4,-7.612062E4,9.207907E4,2.4414624E3,4.9379527E4,1.684981E5,2.3807525E5,1.3069283E5,-1.2394001E4,-1.0354769E4,-6.991927E3,-1.3250937E4,-9.032053E3,-6.091531E3,-9.253283E3,-1.0982226E4,-3.872205E3,-7.0179126E3,-1.6355634E3,-5.032309E3,-8.3433545E3,-4.3086025E3,-9.75878E3,-7.2885845E3,-6.79216E3,4.0166548E3,8.963546E3,1.2247124E4,1.8845564E4,1.1062327E4,2.2208264E4,1.5241244E4,-5.1935703E3,-1.5588129E3,1.2403518E4,6.1884917E3,-9.146682E3,-1.2828625E4,-8.383784E3,-6.9531562E3,9.14912E3,1.4890183E4,2.2244578E4,1.6371555E4,-9.40738E2,3.0826682E3,7.1097095E3,1.1658399E4,2.419844E4,1.6071643E4,3.7266875E4,2.4524865E4,2.6452834E4,1.4275944E4,2.0542824E4,2.5591625E4,-1.8995917E3,6.035412E3,-4.6142144E3,-1.2045214E3,8.599699E3,3.3767134E3,-6.616005E2,3.860028E3,4.5704688E3,4.0709543E2,2.2949922E4,7.8311655E3,1.4028757E4,9.360688E3,8.0043696E3,4.30741E3],"categories":[],"categories_nodes":[],"categories_segments":[],"categories_sizes":[],"default_left":[0,0,0,0,0,0,0,0,0,0,0,0,0,0,0,0,0,0,0,0,0,0,0,0,0,0,0,0,0,0,0,0,0,0,0,0,0,0,0,0,0,0,0,0,0,0,0,0,0,0,0,0,0,0,0,0,0,0,0,0,0,0,0,0,0,0,0,0,0,0,0,0,0,0,0,0,0,0,0,0,0,0,0,0,0,0,0,0,0,0,0,0,0,0,0,0,0,0,0,0,0,0,0,0,0,0,0,0,0,0,0,0,0,0,0,0,0,0,0,0,0,0,0,0,0,0,0],"id":1,"left_children":[1,3,5,7,9,11,13,15,17,19,21,23,25,27,29,31,33,35,37,39,41,43,45,47,49,51,53,55,57,59,61,63,65,67,69,71,73,75,77,79,81,83,85,87,89,91,93,95,97,99,101,103,105,107,109,111,113,115,117,119,121,123,125,-1,-1,-1,-1,-1,-1,-1,-1,-1,-1,-1,-1,-1,-1,-1,-1,-1,-1,-1,-1,-1,-1,-1,-1,-1,-1,-1,-1,-1,-1,-1,-1,-1,-1,-1,-1,-1,-1,-1,-1,-1,-1,-1,-1,-1,-1,-1,-1,-1,-1,-1,-1,-1,-1,-1,-1,-1,-1,-1,-1,-1,-1,-1,-1],"loss_changes":[1.1092826E15,7.761033E13,4.8893374E14,3.1583445E13,8.883046E13,1.3624287E14,3.5087762E14,7.8155654E12,6.3718105E12,1.1490166E13,1.9421347E13,7.196974E13,2.0546855E13,1.0222839E14,1.0231921E14,4.430611E11,5.5618484E12,3.7600153E12,2.8766844E12,4.0328202E12,3.9331037E11,5.804619E12,2.0539507E12,1.1196711E13,2.5332258E13,6.504862E12,1.1473166E13,1.9809798E13,3.626791E13,6.50582E13,1.727211E13,1.0891978E11,2.232628E11,1.0427409E13,1.4031457E12,1.9392889E12,2.7199757E12,1.4939534E12,3.477749E11,3.1916457E12,2.1254321E11,3.9634652E11,4.083176E11,5.2422173E12,2.8794054E11,1.3255553E12,9.6208945E10,1.0009254E13,1.9988459E12,3.6937214E12,2.4399818E12,1.8151899E12,6.5793027E12,1.2263474E13,1.3832563E12,2.333167E13,1.6257651E13,1.4193542E13,1.4041917E13,3.2025516E13,2.0967393E13,1.2473961E13,2.6403018E12,0E0,0E0,0E0,0E0,0E0,0E0,0E0,0E0,0E0,0E0,0E0,0E0,0E0,0E0,0E0,0E0,0E0,0E0,0E0,0E0,0E0,0E0,0E0,0E0,0E0,0E0,0E0,0E0,0E0,0E0,0E0,0E0,0E0,0E0,0E0,0E0,0E0,0E0,0E0,0E0,0E0,0E0,0E0,0E0,0E0,0E0,0E0,0E0,0E0,0E0,0E0,0E0,0E0,0E0,0E0,0E0,0E0,0E0,0E0,0E0,0E0,0E0,0E0,0E0],"parents":[2147483647,0,0,1,1,2,2,3,3,4,4,5,5,6,6,7,7,8,8,9,9,10,10,11,11,12,12,13,13,14,14,15,15,16,16,17,17,18,18,19,19,20,20,21,21,22,22,23,23,24,24,25,25,26,26,27,27,28,28,29,29,30,30,31,31,32,32,33,33,34,34,35,35,36,36,37,37,38,38,39,39,40,40,41,41,42,42,43,43,44,44,45,45,46,46,47,47,48,48,49,49,50,50,51,51,52,52,53,53,54,54,55,55,56,56,57,57,58,58,59,59,60,60,61,61,62,62],"right_children":[2,4,6,8,10,12,14,16,18,20,22,24,26,28,30,32,34,36,38,40,42,44,46,48,50,52,54,56,58,60,62,64,66,68,70,72,74,76,78,80,82,84,86,88,90,92,94,96,98,100,102,104,106,108,110,112,114,116,118,120,122,124,126,-1,-1,-1,-1,-1,-1,-1,-1,-1,-1,-1,-1,-1,-1,-1,-1,-1,-1,-1,-1,-1,-1,-1,-1,-1,-1,-1,-1,-1,-1,-1,-1,-1,-1,-1,-1,-1,-1,-1,-1,-1,-1,-1,-1,-1,-1,-1,-1,-1,-1,-1,-1,-1,-1,-1,-1,-1,-1,-1,-1,-1,-1,-1,-1],"split_conditions":[8.5E1,2.001E3,4.40077E5,7.5E1,3.9101E5,2.005E3,1.12E2,5.8E1,5.72273E5,7.7E1,1E0,1E0,1E0,2.006E3,1.38E2,5.62E2,7.62E2,1E0,7.75E2,2.018E3,8.3E1,1E0,2.018E3,1.38E2,1.995E3,2.01E3,2.018E3,6.00036E5,6.70146E5,2.009E3,8.87E2,4.8E1,8.5101E4,1.984E3,6.00036E5,6.83E2,7.7E2,1E0,1.989E3,5.1E1,2.02E3,1.085E3,1.107E3,2.018E3,1.095E3,1.095E3,2.02E3,1.995E3,7.46E2,1.002E2,5E0,9.95E2,1.055E3,9.0017E4,2.02E3,5.61308E5,1E0,5.30113E5,2.018E3,6.00314E5,2.012E3,6.00036E5,6.70624E5,-1.2394001E4,-1.0354769E4,-6.991927E3,-1.3250937E4,-9.032053E3,-6.091531E3,-9.253283E3,-1.0982226E4,-3.872205E3,-7.0179126E3,-1.6355634E3,-5.032309E3,-8.3433545E3,-4.3086025E3,-9.75878E3,-7.2885845E3,-6.79216E3,4.0166548E3,8.963546E3,1.2247124E4,1.8845564E4,1.1062327E4,2.2208264E4,1.5241244E4,-5.1935703E3,-1.5588129E3,1.2403518E4,6.1884917E3,-9.146682E3,-1.2828625E4,-8.383784E3,-6.9531562E3,9.14912E3,1.4890183E4,2.2244578E4,1.6371555E4,-9.40738E2,3.0826682E3,7.1097095E3,1.1658399E4,2.419844E4,1.6071643E4,3.7266875E4,2.4524865E4,2.6452834E4,1.4275944E4,2.0542824E4,2.5591625E4,-1.8995917E3,6.035412E3,-4.6142144E3,-1.2045214E3,8.599699E3,3.3767134E3,-6.616005E2,3.860028E3,4.5704688E3,4.0709543E2,2.2949922E4,7.8311655E3,1.4028757E4,9.360688E3,8.0043696E3,4.30741E3],"split_indices":[1,2,3,1,3,2,1,1,3,1,7,9,9,2,1,6,6,9,6,2,1,9,2,1,2,2,2,3,3,2,6,1,3,2,3,6,6,9,2,1,2,6,6,2,6,6,2,2,6,1,0,6,6,3,2,3,10,3,2,3,2,3,3,0,0,0,0,0,0,0,0,0,0,0,0,0,0,0,0,0,0,0,0,0,0,0,0,0,0,0,0,0,0,0,0,0,0,0,0,0,0,0,0,0,0,0,0,0,0,0,0,0,0,0,0,0,0,0,0,0,0,0,0,0,0,0,0],"split_type":[0,0,0,0,0,0,0,0,0,0,0,0,0,0,0,0,0,0,0,0,0,0,0,0,0,0,0,0,0,0,0,0,0,0,0,0,0,0,0,0,0,0,0,0,0,0,0,0,0,0,0,0,0,0,0,0,0,0,0,0,0,0,0,0,0,0,0,0,0,0,0,0,0,0,0,0,0,0,0,0,0,0,0,0,0,0,0,0,0,0,0,0,0,0,0,0,0,0,0,0,0,0,0,0,0,0,0,0,0,0,0,0,0,0,0,0,0,0,0,0,0,0,0,0,0,0,0],"sum_hessian":[1.38445E5,4.0354E4,9.8091E4,3.1036E4,9.318E3,1.3393E4,8.4698E4,2.4327E4,6.709E3,2.053E3,7.265E3,8.312E3,5.081E3,5.2303E4,3.2395E4,1.472E3,2.2855E4,4.605E3,2.104E3,1.737E3,3.16E2,5.379E3,1.886E3,4.024E3,4.288E3,1.172E3,3.909E3,3.308E4,1.9223E4,2.4575E4,7.82E3,4.16E2,1.056E3,1.7836E4,5.019E3,2.035E3,2.57E3,1.062E3,1.042E3,1.438E3,2.99E2,1.28E2,1.88E2,5.284E3,9.5E1,1.068E3,8.18E2,3.259E3,7.65E2,2.68E3,1.608E3,3.67E2,8.05E2,3.196E3,7.13E2,1.3747E4,1.9333E4,7.241E3,1.1982E4,1.8477E4,6.098E3,5.794E3,2.026E3,1.45E2,2.71E2,1.8E1,1.038E3,1.398E4,3.856E3,2.027E3,2.992E3,8.37E2,1.198E3,1.654E3,9.16E2,3.39E2,7.23E2,8.51E2,1.91E2,7.1E1,1.367E3,2.21E2,7.8E1,2.2E1,1.06E2,3.1E1,1.57E2,3.959E3,1.325E3,2.8E1,6.7E1,4.14E2,6.54E2,6.23E2,1.95E2,2.042E3,1.217E3,2.13E2,5.52E2,1.858E3,8.22E2,1.214E3,3.94E2,1.01E2,2.66E2,1.24E2,6.81E2,2.23E2,2.973E3,4.87E2,2.26E2,1.2749E4,9.98E2,1.475E4,4.583E3,1.7E3,5.541E3,9.906E3,2.076E3,9.15E3,9.327E3,2.38E2,5.86E3,3.154E3,2.64E3,1.219E3,8.07E2],"tree_param":{"num_deleted":"0","num_feature":"13","num_nodes":"127","size_leaf_vector":"1"}},{"base_weights":[-2.732306E2,-1.3281356E5,5.4342086E4,-1.7787947E5,-8.29988E4,-1.0372606E4,1.3296627E5,-1.8349614E5,4.525307E4,-1.0929878E5,-1.758292E4,1.5788895E5,-3.716569E4,3.0722425E5,1.0613463E5,-1.962463E5,-1.2871978E5,1.0340699E5,-1.4993969E5,-1.2662134E5,-4.5525996E4,1.5319505E5,-6.839307E4,1.0088334E5,2.6896625E5,-8.35178E4,3.5184684E4,1.6406111E5,3.8360228E5,5.348803E4,1.9482447E5,-2.085085E5,-1.4508447E5,-1.4091784E5,1.468793E5,4.044923E4,2.0779077E5,-1.1474067E4,-1.2974175E5,-1.706788E5,-1.1695021E5,-7.250865E4,-1.4905864E4,1.2861964E5,3.4443053E5,-1.5722306E5,-3.1305736E4,2.5308236E4,1.8635239E5,3.753951E5,2.2482461E5,-1.0676981E5,-3.9551246E4,5.288125E3,1.2351427E5,2.8429612E5,5.235707E4,3.2146884E5,4.4807028E5,1.7796883E4,1.0150502E5,1.6219783E5,3.1269416E5,-1.3428808E4,-1.023144E4,-4.0416934E2,-8.628142E3,-5.9045693E3,-9.569782E3,1.1310228E3,8.650857E3,6.708581E2,5.45865E3,5.6508467E3,1.2894639E4,-4.894125E3,-7.2943823E3,-9.848628E2,-8.800278E3,-6.8117554E3,-4.764489E3,-2.801033E3,-5.3010156E3,-2.422636E3,2.1844579E2,-4.377203E3,6.908932E3,1.3141437E4,1.9408596E4,-8.927706E3,-7.0921094E3,-1.7679023E3,1.0894402E4,-1.2669564E3,5.0897305E3,8.339833E3,1.3442385E4,1.6980064E4,2.3108373E4,1.9395766E4,1.0518492E4,-3.907059E3,-6.4290317E3,4.517861E3,-2.568296E3,-7.254741E2,4.3273374E3,8.210172E3,3.6537458E3,1.1519377E4,2.13137E4,1.228588E3,5.8965015E3,1.4145148E4,2.1270232E4,2.7495922E4,2.0649062E4,-6.584523E2,2.6605625E3,8.409202E3,3.7457087E3,6.7955522E3,1.1044184E4,1.3419362E4,1.812593E4],"categories":[],"categories_nodes":[],"categories_segments":[],"categories_sizes":[],"default_left":[0,0,0,0,0,0,0,0,0,0,0,0,0,0,0,0,0,0,0,0,0,0,0,0,0,0,0,0,0,0,0,0,0,0,0,0,0,0,0,0,0,0,0,0,0,0,0,0,0,0,0,0,0,0,0,0,0,0,0,0,0,0,0,0,0,0,0,0,0,0,0,0,0,0,0,0,0,0,0,0,0,0,0,0,0,0,0,0,0,0,0,0,0,0,0,0,0,0,0,0,0,0,0,0,0,0,0,0,0,0,0,0,0,0,0,0,0,0,0,0,0,0,0,0,0],"id":2,"left_children":[1,3,5,7,9,11,13,15,17,19,21,23,25,27,29,31,33,35,37,39,41,43,45,47,49,51,53,55,57,59,61,63,65,67,69,71,73,-1,75,77,79,81,83,85,87,89,91,93,95,97,99,101,103,105,107,109,111,113,115,117,119,121,123,-1,-1,-1,-1,-1,-1,-1,-1,-1,-1,-1,-1,-1,-1,-1,-1,-1,-1,-1,-1,-1,-1,-1,-1,-1,-1,-1,-1,-1,-1,-1,-1,-1,-1,-1,-1,-1,-1,-1,-1,-1,-1,-1,-1,-1,-1,-1,-1,-1,-1,-1,-1,-1,-1,-1,-1,-1,-1,-1,-1,-1,-1],"loss_changes":[1.00100796E15,9.057784E13,4.9828795E14,2.6559876E13,3.297712E13,2.4217985E14,2.0669557E14,1.4408005E13,5.929493E12,1.50978E13,4.7718018E13,4.6696914E13,1.5540843E14,6.4439743E13,1.7889529E14,1.0485559E13,1.3148417E13,2.6334462E12,1.6301582E11,4.560886E12,2.4131115E12,5.88201E12,1.3957031E13,3.1503908E13,1.1669846E13,2.8870938E13,4.778637E13,2.7571853E13,1.5261629E13,4.1206076E13,5.483502E13,3.0955306E12,1.2210852E13,4.2867297E12,5.3523094E11,4.6668716E11,6.878559E11,0E0,3.6130914E10,1.5511375E12,3.67088E12,8.521557E11,8.86065E11,2.3242924E12,4.0839833E11,3.8413323E11,3.028046E12,1.0035808E13,3.647912E12,2.11658E12,4.0934142E12,1.152536E13,1.5002964E13,2.1752845E13,9.379491E12,7.471423E12,1.9393172E12,7.7440945E12,6.5094256E12,1.5127733E13,1.8164717E13,1.7216913E13,6.7306835E12,0E0,0E0,0E0,0E0,0E0,0E0,0E0,0E0,0E0,0E0,0E0,0E0,0E0,0E0,0E0,0E0,0E0,0E0,0E0,0E0,0E0,0E0,0E0,0E0,0E0,0E0,0E0,0E0,0E0,0E0,0E0,0E0,0E0,0E0,0E0,0E0,0E0,0E0,0E0,0E0,0E0,0E0,0E0,0E0,0E0,0E0,0E0,0E0,0E0,0E0,0E0,0E0,0E0,0E0,0E0,0E0,0E0,0E0,0E0,0E0,0E0,0E0],"parents":[2147483647,0,0,1,1,2,2,3,3,4,4,5,5,6,6,7,7,8,8,9,9,10,10,11,11,12,12,13,13,14,14,15,15,16,16,17,17,18,18,19,19,20,20,21,21,22,22,23,23,24,24,25,25,26,26,27,27,28,28,29,29,30,30,31,31,32,32,33,33,34,34,35,35,36,36,38,38,39,39,40,40,41,41,42,42,43,43,44,44,45,45,46,46,47,47,48,48,49,49,50,50,51,51,52,52,53,53,54,54,55,55,56,56,57,57,58,58,59,59,60,60,61,61,62,62],"right_children":[2,4,6,8,10,12,14,16,18,20,22,24,26,28,30,32,34,36,38,40,42,44,46,48,50,52,54,56,58,60,62,64,66,68,70,72,74,-1,76,78,80,82,84,86,88,90,92,94,96,98,100,102,104,106,108,110,112,114,116,118,120,122,124,-1,-1,-1,-1,-1,-1,-1,-1,-1,-1,-1,-1,-1,-1,-1,-1,-1,-1,-1,-1,-1,-1,-1,-1,-1,-1,-1,-1,-1,-1,-1,-1,-1,-1,-1,-1,-1,-1,-1,-1,-1,-1,-1,-1,-1,-1,-1,-1,-1,-1,-1,-1,-1,-1,-1,-1,-1,-1,-1,-1,-1,-1],"split_conditions":[8.5E1,2.022E3,2.022E3,7E0,2.001E3,4.40077E5,4.40029E5,7.5E1,5.63307E5,7.5E1,5.10112E5,2.005E3,1.12E2,1.993E3,1.12E2,2.001E3,2.008E3,1E0,6.7E1,6.2E1,2.024E3,7.7E1,6.03E1,1.1E2,1E0,2.005E3,1.38E2,1E0,2.024E3,2.005E3,1.4E2,5.8E1,5.10112E5,5.72273E5,7.7E1,2.015E3,2.01E3,-1.1474067E4,6.52451E5,8.5101E4,2.024E3,5.72273E5,1E0,5.1E1,2.023E3,2.024E3,1E0,1.995E3,1.39E2,9E0,9.0017E4,6.00314E5,5.26856E5,2.009E3,6.10121E5,1.34E2,1.002E2,7E0,1E0,2.024E3,5.72273E5,2.009E3,2.024E3,-1.3428808E4,-1.023144E4,-4.0416934E2,-8.628142E3,-5.9045693E3,-9.569782E3,1.1310228E3,8.650857E3,6.708581E2,5.45865E3,5.6508467E3,1.2894639E4,-4.894125E3,-7.2943823E3,-9.848628E2,-8.800278E3,-6.8117554E3,-4.764489E3,-2.801033E3,-5.3010156E3,-2.422636E3,2.1844579E2,-4.377203E3,6.908932E3,1.3141437E4,1.9408596E4,-8.927706E3,-7.0921094E3,-1.7679023E3,1.0894402E4,-1.2669564E3,5.0897305E3,8.339833E3,1.3442385E4,1.6980064E4,2.3108373E4,1.9395766E4,1.0518492E4,-3.907059E3,-6.4290317E3,4.517861E3,-2.568296E3,-7.254741E2,4.3273374E3,8.210172E3,3.6537458E3,1.1519377E4,2.13137E4,1.228588E3,5.8965015E3,1.4145148E4,2.1270232E4,2.7495922E4,2.0649062E4,-6.584523E2,2.6605625E3,8.409202E3,3.7457087E3,6.7955522E3,1.1044184E4,1.3419362E4,1.812593E4],"split_indices":[1,4,4,0,2,3,3,1,3,1,3,2,1,2,1,2,2,9,1,1,4,1,1,1,9,2,1,9,4,2,1,1,3,3,1,2,2,0,3,3,4,3,9,1,4,4,9,2,1,0,3,3,3,2,3,1,1,0,9,4,3,2,4,0,0,0,0,0,0,0,0,0,0,0,0,0,0,0,0,0,0,0,0,0,0,0,0,0,0,0,0,0,0,0,0,0,0,0,0,0,0,0,0,0,0,0,0,0,0,0,0,0,0,0,0,0,0,0,0,0,0,0,0,0,0],"split_type":[0,0,0,0,0,0,0,0,0,0,0,0,0,0,0,0,0,0,0,0,0,0,0,0,0,0,0,0,0,0,0,0,0,0,0,0,0,0,0,0,0,0,0,0,0,0,0,0,0,0,0,0,0,0,0,0,0,0,0,0,0,0,0,0,0,0,0,0,0,0,0,0,0,0,0,0,0,0,0,0,0,0,0,0,0,0,0,0,0,0,0,0,0,0,0,0,0,0,0,0,0,0,0,0,0,0,0,0,0,0,0,0,0,0,0,0,0,0,0,0,0,0,0,0,0],"sum_hessian":[1.38283E5,4.0353E4,9.793E4,2.1185E4,1.9168E4,5.3717E4,4.4213E4,2.0665E4,5.2E2,1.3671E4,5.497E3,7.378E3,4.6339E4,5.898E3,3.8315E4,1.6761E4,3.904E3,4.01E2,1.19E2,1.075E4,2.921E3,1.26E3,4.237E3,4.877E3,2.501E3,2.8244E4,1.8095E4,2.053E3,3.845E3,2.4044E4,1.4271E4,1.3518E4,3.243E3,3.739E3,1.65E2,2.51E2,1.5E2,2.2E1,9.7E1,1.932E3,8.818E3,1.552E3,1.369E3,1.118E3,1.42E2,1.247E3,2.99E3,2.589E3,2.288E3,7.31E2,1.77E3,1.8473E4,9.771E3,1.352E4,4.575E3,9.88E2,1.065E3,1.961E3,1.884E3,1.3793E4,1.0251E4,1.1179E4,3.092E3,8.16E2,1.2702E4,5.42E2,2.701E3,2.577E3,1.162E3,2.9E1,1.36E2,1.81E2,7E1,5.3E1,9.7E1,3.5E1,6.2E1,6.6E1,1.866E3,4.662E3,4.156E3,1.042E3,5.1E2,4.99E2,8.7E2,4.7E1,1.071E3,5.2E1,9E1,5.18E2,7.29E2,2.943E3,4.7E1,1.558E3,1.031E3,1.852E3,4.36E2,5.21E2,2.1E2,1.42E2,1.628E3,7.99E3,1.0483E4,8.14E2,8.957E3,1.0872E4,2.648E3,2.531E3,2.044E3,7.18E2,2.7E2,7.49E2,3.16E2,1.433E3,5.28E2,4.79E2,1.405E3,7.359E3,6.434E3,2.921E3,7.33E3,7.723E3,3.456E3,1.64E3,1.452E3],"tree_param":{"num_deleted":"0","num_feature":"13","num_nodes":"125","size_leaf_vector":"1"}},{"base_weights":[-3.271557E1,-1.26310836E5,5.1878895E4,-1.6946145E5,-7.843558E4,-9.690484E3,1.26596125E5,-1.7475383E5,3.944068E4,-1.03412875E5,-1.6019211E4,1.4806306E5,-3.5590723E4,2.9367266E5,1.0066752E5,-1.8676686E5,-1.23391055E5,9.673664E4,-1.4967748E5,-1.23386414E5,-5.3259168E4,1.542093E5,-6.349877E4,9.372612E4,2.5594852E5,-7.932349E4,3.2986758E4,1.5843506E5,3.653143E5,5.107301E4,1.8448358E5,-1.9771312E5,-1.404257E5,-1.3512039E5,1.176095E5,3.7758715E4,1.9556783E5,-1.0862718E4,-1.2528009E5,-1.4153244E5,-1.0303521E5,-7.625907E4,-2.5319072E4,1.3032599E5,3.292206E5,-1.4942623E5,-2.8035488E4,1.9929113E4,1.74913E5,3.5489506E5,2.136057E5,-1.010658E5,-3.5606863E4,4.735321E3,1.18924836E5,5.7047066E4,2.8282897E5,3.0789762E5,4.253285E5,1.8247402E4,9.700277E4,1.540635E5,2.963571E5,-2.7925913E3,-9.963481E3,-4.6340274E2,-8.275473E3,-5.704585E3,-9.123883E3,6.956057E2,7.949072E3,5.216881E2,5.185728E3,4.973326E3,1.2203493E4,-6.9368276E3,-4.3873276E3,-1.0203042E4,-6.81498E3,-7.202862E3,-4.668769E3,-2.9894526E3,-5.468564E3,-2.5610767E2,-3.1325205E3,4.666617E3,8.633663E3,1.2604136E4,1.8357629E4,-8.430084E3,-6.7687524E3,-2.9261804E3,2.5098418E2,-1.3724136E3,4.821379E3,7.849867E3,1.2444819E4,1.5593536E4,2.137446E4,8.686673E3,1.3271057E4,-3.7008196E3,-6.0646216E3,4.46143E3,-2.349757E3,-7.122158E2,4.0942312E3,7.87629E3,3.5600994E3,1.7911881E3,5.388704E3,1.126425E4,2.0320379E4,1.3503885E4,2.0291771E4,1.7886814E4,2.389408E4,-5.4146313E2,2.5785264E3,8.121621E3,3.5761887E3,5.9083413E3,9.765855E3,1.2761969E4,1.7270625E4],"categories":[],"categories_nodes":[],"categories_segments":[],"categories_sizes":[],"default_left":[0,0,0,0,0,0,0,0,0,0,0,0,0,0,0,0,0,0,0,0,0,0,0,0,0,0,0,0,0,0,0,0,0,0,0,0,0,0,0,0,0,0,0,0,0,0,0,0,0,0,0,0,0,0,0,0,0,0,0,0,0,0,0,0,0,0,0,0,0,0,0,0,0,0,0,0,0,0,0,0,0,0,0,0,0,0,0,0,0,0,0,0,0,0,0,0,0,0,0,0,0,0,0,0,0,0,0,0,0,0,0,0,0,0,0,0,0,0,0,0,0,0,0,0,0],"id":3,"left_children":[1,3,5,7,9,11,13,15,17,19,21,23,25,27,29,31,33,35,37,39,41,43,45,47,49,51,53,55,57,59,61,63,65,67,69,71,73,-1,75,77,79,81,83,85,87,89,91,93,95,97,99,101,103,105,107,109,111,113,115,117,119,121,123,-1,-1,-1,-1,-1,-1,-1,-1,-1,-1,-1,-1,-1,-1,-1,-1,-1,-1,-1,-1,-1,-1,-1,-1,-1,-1,-1,-1,-1,-1,-1,-1,-1,-1,-1,-1,-1,-1,-1,-1,-1,-1,-1,-1,-1,-1,-1,-1,-1,-1,-1,-1,-1,-1,-1,-1,-1,-1,-1,-1,-1,-1],"loss_changes":[9.041988E14,8.300078E13,4.4967992E14,2.337234E13,2.9698692E13,2.1897028E14,1.9127422E14,1.2695051E13,5.681554E12,1.36232E13,4.40264E13,4.4282254E13,1.3806239E14,5.741519E13,1.5890154E14,8.4450466E12,1.1068588E13,2.3358168E12,1.7392363E11,3.578664E12,2.489504E12,4.922754E12,1.2974133E13,3.0121012E13,1.0528257E13,2.6714025E13,4.352151E13,2.5914235E13,1.3228499E13,3.6211016E13,4.8317208E13,2.9717818E12,1.0509781E13,3.692749E12,7.785978E11,4.548847E11,6.748897E11,0E0,3.4292498E10,1.6543174E12,1.8054088E12,1.1528936E12,1.3206486E12,1.6240911E12,3.2293834E11,3.12354E11,3.0397885E12,9.552671E12,3.1340762E12,2.2310342E12,3.6210433E12,1.0261549E13,1.3279662E13,1.975704E13,8.15871E12,1.2169978E12,6.4720795E12,7.2428416E12,6.553315E12,1.3574234E13,1.6677543E13,1.6525642E13,6.037583E12,0E0,0E0,0E0,0E0,0E0,0E0,0E0,0E0,0E0,0E0,0E0,0E0,0E0,0E0,0E0,0E0,0E0,0E0,0E0,0E0,0E0,0E0,0E0,0E0,0E0,0E0,0E0,0E0,0E0,0E0,0E0,0E0,0E0,0E0,0E0,0E0,0E0,0E0,0E0,0E0,0E0,0E0,0E0,0E0,0E0,0E0,0E0,0E0,0E0,0E0,0E0,0E0,0E0,0E0,0E0,0E0,0E0,0E0,0E0,0E0,0E0,0E0],"parents":[2147483647,0,0,1,1,2,2,3,3,4,4,5,5,6,6,7,7,8,8,9,9,10,10,11,11,12,12,13,13,14,14,15,15,16,16,17,17,18,18,19,19,20,20,21,21,22,22,23,23,24,24,25,25,26,26,27,27,28,28,29,29,30,30,31,31,32,32,33,33,34,34,35,35,36,36,38,38,39,39,40,40,41,41,42,42,43,43,44,44,45,45,46,46,47,47,48,48,49,49,50,50,51,51,52,52,53,53,54,54,55,55,56,56,57,57,58,58,59,59,60,60,61,61,62,62],"right_children":[2,4,6,8,10,12,14,16,18,20,22,24,26,28,30,32,34,36,38,40,42,44,46,48,50,52,54,56,58,60,62,64,66,68,70,72,74,-1,76,78,80,82,84,86,88,90,92,94,96,98,100,102,104,106,108,110,112,114,116,118,120,122,124,-1,-1,-1,-1,-1,-1,-1,-1,-1,-1,-1,-1,-1,-1,-1,-1,-1,-1,-1,-1,-1,-1,-1,-1,-1,-1,-1,-1,-1,-1,-1,-1,-1,-1,-1,-1,-1,-1,-1,-1,-1,-1,-1,-1,-1,-1,-1,-1,-1,-1,-1,-1,-1,-1,-1,-1,-1,-1,-1,-1,-1,-1],"split_conditions":[8.5E1,2.022E3,2.022E3,7E0,2.001E3,4.60036E5,4.40029E5,7.5E1,5.63307E5,7.4E1,4.00305E5,2.005E3,1.12E2,1.993E3,1.12E2,2.001E3,2.002E3,1E0,6.7E1,2.024E3,2.024E3,7.7E1,6.03E1,1.1E2,1E0,2.006E3,1.4E2,1.14E2,2.024E3,2.006E3,1.4E2,8.5101E4,5.10112E5,5.72273E5,2.014E3,2.015E3,2.01E3,-1.0862718E4,2.021E3,5.9E1,6.2E1,5.72273E5,5.72273E5,2.024E3,2.023E3,2.024E3,2.024E3,1.995E3,1.38E2,8E0,6E0,6.00314E5,5.26856E5,2.007E3,6.10121E5,9.9E1,1.34E2,7E0,2.01E3,2.024E3,5.72273E5,2.024E3,2.024E3,-2.7925913E3,-9.963481E3,-4.6340274E2,-8.275473E3,-5.704585E3,-9.123883E3,6.956057E2,7.949072E3,5.216881E2,5.185728E3,4.973326E3,1.2203493E4,-6.9368276E3,-4.3873276E3,-1.0203042E4,-6.81498E3,-7.202862E3,-4.668769E3,-2.9894526E3,-5.468564E3,-2.5610767E2,-3.1325205E3,4.666617E3,8.633663E3,1.2604136E4,1.8357629E4,-8.430084E3,-6.7687524E3,-2.9261804E3,2.5098418E2,-1.3724136E3,4.821379E3,7.849867E3,1.2444819E4,1.5593536E4,2.137446E4,8.686673E3,1.3271057E4,-3.7008196E3,-6.0646216E3,4.46143E3,-2.349757E3,-7.122158E2,4.0942312E3,7.87629E3,3.5600994E3,1.7911881E3,5.388704E3,1.126425E4,2.0320379E4,1.3503885E4,2.0291771E4,1.7886814E4,2.389408E4,-5.4146313E2,2.5785264E3,8.121621E3,3.5761887E3,5.9083413E3,9.765855E3,1.2761969E4,1.7270625E4],"split_indices":[1,4,4,0,2,3,3,1,3,1,3,2,1,2,1,2,2,9,1,4,4,1,1,1,9,2,1,1,4,2,1,3,3,3,2,2,2,0,4,1,1,3,3,4,4,4,4,2,1,0,0,3,3,2,3,1,1,0,2,4,3,4,4,0,0,0,0,0,0,0,0,0,0,0,0,0,0,0,0,0,0,0,0,0,0,0,0,0,0,0,0,0,0,0,0,0,0,0,0,0,0,0,0,0,0,0,0,0,0,0,0,0,0,0,0,0,0,0,0,0,0,0,0,0,0],"split_type":[0,0,0,0,0,0,0,0,0,0,0,0,0,0,0,0,0,0,0,0,0,0,0,0,0,0,0,0,0,0,0,0,0,0,0,0,0,0,0,0,0,0,0,0,0,0,0,0,0,0,0,0,0,0,0,0,0,0,0,0,0,0,0,0,0,0,0,0,0,0,0,0,0,0,0,0,0,0,0,0,0,0,0,0,0,0,0,0,0,0,0,0,0,0,0,0,0,0,0,0,0,0,0,0,0,0,0,0,0,0,0,0,0,0,0,0,0,0,0,0,0,0,0,0,0],"sum_hessian":[1.37932E5,4.0183E4,9.7749E4,2.1133E4,1.905E4,5.359E4,4.4159E4,2.0611E4,5.22E2,1.3605E4,5.445E3,7.557E3,4.6033E4,5.931E3,3.8228E4,1.6702E4,3.909E3,4.01E2,1.21E2,9.729E3,3.876E3,1.187E3,4.258E3,5.027E3,2.53E3,2.8108E4,1.7925E4,2.055E3,3.876E3,2.4018E4,1.421E4,1.3508E4,3.194E3,3.728E3,1.81E2,2.52E2,1.49E2,3E1,9.1E1,5.14E3,4.589E3,2.125E3,1.751E3,1.046E3,1.41E2,1.243E3,3.015E3,2.634E3,2.393E3,7.56E2,1.774E3,1.8771E4,9.337E3,1.3491E4,4.434E3,1.133E3,9.22E2,1.984E3,1.892E3,1.4008E4,1.001E4,1.1174E4,3.036E3,1.47E2,1.3361E4,5.13E2,2.681E3,2.584E3,1.144E3,5.2E1,1.29E2,1.79E2,7.3E1,5.1E1,9.8E1,6.5E1,2.6E1,3.94E2,4.746E3,8.72E2,3.717E3,1.421E3,7.04E2,1.137E3,6.14E2,5.6E2,4.86E2,4.9E1,9.2E1,5.21E2,7.22E2,1.568E3,1.447E3,1.627E3,1.007E3,1.929E3,4.64E2,4.78E2,2.78E2,1.005E3,7.69E2,8.033E3,1.0738E4,7.8E2,8.557E3,1.0828E4,2.663E3,2.45E3,1.984E3,8E2,3.33E2,6.31E2,2.91E2,1.434E3,5.5E2,8.31E2,1.061E3,7.481E3,6.527E3,2.804E3,7.206E3,5.977E3,5.197E3,1.655E3,1.381E3],"tree_param":{"num_deleted":"0","num_feature":"13","num_nodes":"125","size_leaf_vector":"1"}},{"base_weights":[-2.4353601E1,-1.1940343E5,4.910247E4,-1.5994092E5,-7.426382E4,-9.1966875E3,1.1950317E5,-1.6510848E5,3.678711E4,-8.226805E4,9.219002E4,1.4206472E5,-3.401705E4,2.74992E5,9.544913E4,-1.7670747E5,-1.1641311E5,9.084116E4,-1.4325602E5,-1.2781836E5,-6.200286E4,1.676417E5,-6.541417E4,9.870941E4,2.42195E5,-7.524624E4,3.0998611E4,2.1998898E5,3.8356512E5,4.8113027E4,1.7526419E5,-2.3948356E5,-1.7040539E5,-9.279148E4,-1.7213688E5,3.635284E4,1.8533489E5,-1.0776069E4,-1.22311805E5,-1.5277327E5,-1.0700255E5,-8.491354E4,-3.669234E4,1.3708834E5,3.2025672E5,-1.4852484E5,-2.2184652E4,5.2226164E4,1.6882997E5,2.0891314E5,3.2808438E5,-8.9714836E4,-3.0761713E4,3.3100964E3,1.1186805E5,1.1370676E5,2.6389297E5,6.34835E5,3.664387E5,1.6937334E4,8.374049E4,1.4560175E5,2.8125247E5,-1.3033719E4,-1.1575374E4,-6.5748643E3,-8.923718E3,-1.4520044E3,-5.4760874E3,-9.117915E3,-6.3003633E3,-5.665759E3,2.2855657E3,1.1131655E4,3.90085E3,-6.6918125E3,-4.3948813E3,-1.4047255E3,-7.7427485E3,-6.2898315E3,-4.2953584E3,-2.2368882E3,-4.784859E3,1.1424974E3,-2.3702651E3,4.4593564E3,8.463071E3,1.7467873E4,1.4617344E3,-6.633052E3,-8.586008E3,-1.6608778E3,1.349698E3,1.3668719E4,2.32428E3,7.6351807E3,1.1601376E4,7.5820073E3,1.1293352E4,1.3937606E4,2.0325922E4,-2.9129187E3,-5.3828867E3,-2.0006469E3,1.6036586E2,2.117428E3,-1.4403003E3,7.427053E3,3.344963E3,3.9185781E3,7.8128203E3,1.0776214E4,1.5948182E4,1.8076873E4,3.5113848E4,1.5695058E4,2.1358861E4,2.3704492E2,3.2562405E3,6.043274E3,3.1404324E3,5.5468584E3,9.286106E3,1.6358034E4,1.1844843E4],"categories":[],"categories_nodes":[],"categories_segments":[],"categories_sizes":[],"default_left":[0,0,0,0,0,0,0,0,0,0,0,0,0,0,0,0,0,0,0,0,0,0,0,0,0,0,0,0,0,0,0,0,0,0,0,0,0,0,0,0,0,0,0,0,0,0,0,0,0,0,0,0,0,0,0,0,0,0,0,0,0,0,0,0,0,0,0,0,0,0,0,0,0,0,0,0,0,0,0,0,0,0,0,0,0,0,0,0,0,0,0,0,0,0,0,0,0,0,0,0,0,0,0,0,0,0,0,0,0,0,0,0,0,0,0,0,0,0,0,0,0,0,0,0,0],"id":4,"left_children":[1,3,5,7,9,11,13,15,17,19,21,23,25,27,29,31,33,35,37,39,41,43,45,47,49,51,53,55,57,59,61,63,65,67,69,71,73,-1,75,77,79,81,83,85,87,89,91,93,95,97,99,101,103,105,107,109,111,113,115,117,119,121,123,-1,-1,-1,-1,-1,-1,-1,-1,-1,-1,-1,-1,-1,-1,-1,-1,-1,-1,-1,-1,-1,-1,-1,-1,-1,-1,-1,-1,-1,-1,-1,-1,-1,-1,-1,-1,-1,-1,-1,-1,-1,-1,-1,-1,-1,-1,-1,-1,-1,-1,-1,-1,-1,-1,-1,-1,-1,-1,-1,-1,-1,-1],"loss_changes":[8.103159E14,7.3698015E13,4.0175473E14,2.1580432E13,2.5403205E13,2.0103594E14,1.6581506E14,1.1659293E13,5.307254E12,1.6780228E13,1.0416032E13,3.2743304E13,1.2330464E14,3.5388383E13,1.4507943E14,6.565663E12,5.224161E12,2.1506113E12,1.6434541E11,2.89209E12,7.297007E12,2.7165333E12,1.0170698E12,1.7165122E13,6.4489773E12,1.811473E13,3.997078E13,1.8378182E13,8.3568655E12,2.677449E13,4.490385E13,1.9672963E11,4.7419123E12,2.9811037E12,5.3528966E11,3.791571E11,5.950543E11,0E0,2.7896578E10,6.5592204E11,1.2007999E12,2.8581455E12,3.817483E12,7.477626E11,8.197442E11,1.2912165E10,1.02902235E11,4.0116552E12,2.1047772E12,1.564014E12,2.34371E12,1.1982019E13,2.1716308E12,1.6675017E13,7.498602E12,1.7242962E12,7.365634E12,2.0684965E12,5.836374E12,7.5565357E12,8.734722E12,1.5516945E13,6.285869E12,0E0,0E0,0E0,0E0,0E0,0E0,0E0,0E0,0E0,0E0,0E0,0E0,0E0,0E0,0E0,0E0,0E0,0E0,0E0,0E0,0E0,0E0,0E0,0E0,0E0,0E0,0E0,0E0,0E0,0E0,0E0,0E0,0E0,0E0,0E0,0E0,0E0,0E0,0E0,0E0,0E0,0E0,0E0,0E0,0E0,0E0,0E0,0E0,0E0,0E0,0E0,0E0,0E0,0E0,0E0,0E0,0E0,0E0,0E0,0E0,0E0,0E0],"parents":[2147483647,0,0,1,1,2,2,3,3,4,4,5,5,6,6,7,7,8,8,9,9,10,10,11,11,12,12,13,13,14,14,15,15,16,16,17,17,18,18,19,19,20,20,21,21,22,22,23,23,24,24,25,25,26,26,27,27,28,28,29,29,30,30,31,31,32,32,33,33,34,34,35,35,36,36,38,38,39,39,40,40,41,41,42,42,43,43,44,44,45,45,46,46,47,47,48,48,49,49,50,50,51,51,52,52,53,53,54,54,55,55,56,56,57,57,58,58,59,59,60,60,61,61,62,62],"right_children":[2,4,6,8,10,12,14,16,18,20,22,24,26,28,30,32,34,36,38,40,42,44,46,48,50,52,54,56,58,60,62,64,66,68,70,72,74,-1,76,78,80,82,84,86,88,90,92,94,96,98,100,102,104,106,108,110,112,114,116,118,120,122,124,-1,-1,-1,-1,-1,-1,-1,-1,-1,-1,-1,-1,-1,-1,-1,-1,-1,-1,-1,-1,-1,-1,-1,-1,-1,-1,-1,-1,-1,-1,-1,-1,-1,-1,-1,-1,-1,-1,-1,-1,-1,-1,-1,-1,-1,-1,-1,-1,-1,-1,-1,-1,-1,-1,-1,-1,-1,-1,-1,-1,-1,-1],"split_conditions":[8.5E1,2.022E3,2.022E3,7E0,6E0,4.60036E5,4.40077E5,7.5E1,5.70113E5,6.7E1,5.70113E5,5E0,1.12E2,5E0,1.12E2,5.9E1,5.72273E5,7.5E1,6.6E1,6E1,2.024E3,7.9E1,6.6E1,1.09E2,9E0,2.021E3,1.38E2,9.3E1,9.0017E4,2.024E3,1.39E2,4.6E1,3.10009E5,3.10009E5,2.021E3,6E1,1.50069E5,-1.0776069E4,2.021E3,8.5101E4,2.024E3,4.40077E5,1E0,6.8E1,2.00633E5,5.1E1,2.025E3,9.0017E4,1.38E2,9.2E1,1E0,6.00036E5,4E0,6.00314E5,6.10121E5,2.024E3,2.024E3,8.5101E4,2.024E3,4E0,6.00036E5,2.024E3,6.00036E5,-1.3033719E4,-1.1575374E4,-6.5748643E3,-8.923718E3,-1.4520044E3,-5.4760874E3,-9.117915E3,-6.3003633E3,-5.665759E3,2.2855657E3,1.1131655E4,3.90085E3,-6.6918125E3,-4.3948813E3,-1.4047255E3,-7.7427485E3,-6.2898315E3,-4.2953584E3,-2.2368882E3,-4.784859E3,1.1424974E3,-2.3702651E3,4.4593564E3,8.463071E3,1.7467873E4,1.4617344E3,-6.633052E3,-8.586008E3,-1.6608778E3,1.349698E3,1.3668719E4,2.32428E3,7.6351807E3,1.1601376E4,7.5820073E3,1.1293352E4,1.3937606E4,2.0325922E4,-2.9129187E3,-5.3828867E3,-2.0006469E3,1.6036586E2,2.117428E3,-1.4403003E3,7.427053E3,3.344963E3,3.9185781E3,7.8128203E3,1.0776214E4,1.5948182E4,1.8076873E4,3.5113848E4,1.5695058E4,2.1358861E4,2.3704492E2,3.2562405E3,6.043274E3,3.1404324E3,5.5468584E3,9.286106E3,1.6358034E4,1.1844843E4],"split_indices":[1,4,4,0,0,3,3,1,3,1,3,0,1,0,1,1,3,1,1,1,4,1,1,1,0,4,1,1,3,4,1,1,3,3,4,1,3,0,4,3,4,3,8,1,3,1,4,3,1,1,10,3,0,3,3,4,4,3,4,0,3,4,3,0,0,0,0,0,0,0,0,0,0,0,0,0,0,0,0,0,0,0,0,0,0,0,0,0,0,0,0,0,0,0,0,0,0,0,0,0,0,0,0,0,0,0,0,0,0,0,0,0,0,0,0,0,0,0,0,0,0,0,0,0,0],"split_type":[0,0,0,0,0,0,0,0,0,0,0,0,0,0,0,0,0,0,0,0,0,0,0,0,0,0,0,0,0,0,0,0,0,0,0,0,0,0,0,0,0,0,0,0,0,0,0,0,0,0,0,0,0,0,0,0,0,0,0,0,0,0,0,0,0,0,0,0,0,0,0,0,0,0,0,0,0,0,0,0,0,0,0,0,0,0,0,0,0,0,0,0,0,0,0,0,0,0,0,0,0,0,0,0,0,0,0,0,0,0,0,0,0,0,0,0,0,0,0,0,0,0,0,0,0],"sum_hessian":[1.38166E5,4.0281E4,9.7885E4,2.1221E4,1.906E4,5.3545E4,4.434E4,2.0678E4,5.43E2,1.8186E4,8.74E2,7.547E3,4.5998E4,5.939E3,3.8401E4,1.6698E4,3.98E3,4.18E2,1.25E2,5.598E3,1.2588E4,5.91E2,2.83E2,5.268E3,2.279E3,2.8148E4,1.785E4,3.944E3,1.995E3,2.4106E4,1.4295E4,1.52E3,1.5178E4,2.797E3,1.183E3,2.66E2,1.52E2,2.6E1,9.9E1,2.543E3,3.055E3,6.606E3,5.982E3,4.94E2,9.7E1,9.6E1,1.87E2,3.169E3,2.099E3,1.645E3,6.34E2,2.1239E4,6.909E3,1.3298E4,4.552E3,1.154E3,2.79E3,1.25E2,1.87E3,1.2857E4,1.1249E4,1.1171E4,3.124E3,4.07E2,1.113E3,2.61E3,1.2568E4,5.82E2,2.215E3,9.66E2,2.17E2,1.5E1,2.51E2,1.12E2,4E1,7.2E1,2.7E1,4.2E1,2.501E3,1.613E3,1.442E3,1.399E3,5.207E3,9.12E2,5.07E3,2E2,2.94E2,8.8E1,9E0,6.1E1,3.5E1,1.53E2,3.4E1,7.9E1,3.09E3,1.675E3,4.24E2,3.78E2,1.267E3,3.92E2,2.42E2,7.716E3,1.3523E4,5.43E3,1.479E3,6.002E3,7.296E3,2.506E3,2.046E3,6.32E2,5.22E2,1.488E3,1.302E3,2.6E1,9.9E1,1.006E3,8.64E2,1.0261E4,2.596E3,4.054E3,7.195E3,5.995E3,5.176E3,1.532E3,1.592E3],"tree_param":{"num_deleted":"0","num_feature":"13","num_nodes":"125","size_leaf_vector":"1"}},{"base_weights":[-1.0959877E2,-1.1406136E5,4.6637992E4,-1.6324147E5,-8.040909E4,-8.63885E3,1.1380698E5,-1.6667227E5,3.4394517E3,-1.046206E5,-1.9151676E4,1.3530678E5,-3.1796676E4,2.633839E5,9.068515E4,-1.7719366E5,-1.2201124E5,5.906332E4,-1.4554712E5,-1.2236112E5,-5.9733027E4,1.3467538E5,-6.3228324E4,4.8593418E4,1.9144758E5,-7.152173E4,3.0113855E4,1.364926E5,3.299838E5,4.5621312E4,1.6595184E5,-1.8584542E5,-1.3744456E5,-1.2798284E5,1.16648375E5,1.9131953E4,1.5069808E5,-1.0489187E4,-1.27714164E5,-1.482262E5,-1.0322495E5,-8.9644875E4,-3.6196234E4,1.0960718E5,2.5829503E5,-3.3652848E4,-1.424803E5,-2.391199E4,1.3768339E5,1.5422845E5,2.6911528E5,-9.0870234E4,-3.190051E4,5.043785E3,1.053285E5,4.331605E4,2.5194295E5,2.982474E5,4.170165E5,1.6012711E4,8.829809E4,1.3768867E5,2.6314922E5,-2.5412236E3,-9.362038E3,-9.261144E2,-8.005947E3,-5.3756816E3,-8.6425625E3,8.428471E2,7.393286E3,-5.5309116E3,1.532678E3,9.478218E3,2.271547E3,-4.677822E3,-6.941933E3,-8.914354E3,-6.9961953E3,-8.398925E3,-4.9353115E3,-3.7769414E3,-5.93201E3,-9.5594885E2,-3.4289407E3,3.9522224E3,8.133411E3,1.063653E4,1.7065549E4,-2.9660688E3,3.248594E2,-9.082964E3,-6.4765483E3,-2.1255544E3,8.1013446E2,4.836847E3,1.0037036E4,6.2492725E3,1.039619E4,1.1470367E4,1.6633188E4,-3.721075E3,-6.0718228E3,4.150369E3,-2.1114832E3,-6.4693915E2,3.8712625E3,6.992728E3,3.1033435E3,1.1893881E3,4.2825977E3,1.0250329E4,1.914303E4,1.2241699E4,1.7619793E4,1.8789738E4,2.7139045E4,-5.238077E2,2.2813127E3,1.0401554E4,3.858772E3,5.604314E3,9.6849E3,1.1258294E4,1.5423886E4],"categories":[],"categories_nodes":[],"categories_segments":[],"categories_sizes":[],"default_left":[0,0,0,0,0,0,0,0,0,0,0,0,0,0,0,0,0,0,0,0,0,0,0,0,0,0,0,0,0,0,0,0,0,0,0,0,0,0,0,0,0,0,0,0,0,0,0,0,0,0,0,0,0,0,0,0,0,0,0,0,0,0,0,0,0,0,0,0,0,0,0,0,0,0,0,0,0,0,0,0,0,0,0,0,0,0,0,0,0,0,0,0,0,0,0,0,0,0,0,0,0,0,0,0,0,0,0,0,0,0,0,0,0,0,0,0,0,0,0,0,0,0,0,0,0],"id":5,"left_children":[1,3,5,7,9,11,13,15,17,19,21,23,25,27,29,31,33,35,37,39,41,43,45,47,49,51,53,55,57,59,61,63,65,67,69,71,73,-1,75,77,79,81,83,85,87,89,91,93,95,97,99,101,103,105,107,109,111,113,115,117,119,121,123,-1,-1,-1,-1,-1,-1,-1,-1,-1,-1,-1,-1,-1,-1,-1,-1,-1,-1,-1,-1,-1,-1,-1,-1,-1,-1,-1,-1,-1,-1,-1,-1,-1,-1,-1,-1,-1,-1,-1,-1,-1,-1,-1,-1,-1,-1,-1,-1,-1,-1,-1,-1,-1,-1,-1,-1,-1,-1,-1,-1,-1,-1],"loss_changes":[7.353722E14,6.6449285E13,3.63452E14,9.329709E12,3.536335E13,1.790082E14,1.528103E14,7.489651E12,2.7433758E12,1.3601943E13,4.581542E13,3.6219526E13,1.13769045E14,4.995074E13,1.29817165E14,4.4228097E12,4.36315E12,8.789602E11,7.63054E10,6.0469616E12,3.4063683E12,4.635566E12,1.2305446E13,1.8903804E13,1.3015898E13,2.159867E13,3.4093664E13,2.1912395E13,1.0589846E13,3.0252961E13,3.9340827E13,1.9913213E12,6.2420974E12,2.715556E12,2.311492E11,2.560341E11,2.9005578E11,0E0,1.4749794E10,1.2743386E12,2.0442367E12,8.6304516E11,1.4984395E12,2.0191201E12,8.843837E11,3.9434317E12,7.004488E11,1.204889E12,3.3707105E12,4.7725895E12,3.6128728E12,9.509511E12,1.0978775E13,1.7653364E13,6.742633E12,9.313608E11,5.5132826E12,8.1450867E12,5.156494E12,1.1089952E13,1.3044403E13,1.5905405E13,5.488297E12,0E0,0E0,0E0,0E0,0E0,0E0,0E0,0E0,0E0,0E0,0E0,0E0,0E0,0E0,0E0,0E0,0E0,0E0,0E0,0E0,0E0,0E0,0E0,0E0,0E0,0E0,0E0,0E0,0E0,0E0,0E0,0E0,0E0,0E0,0E0,0E0,0E0,0E0,0E0,0E0,0E0,0E0,0E0,0E0,0E0,0E0,0E0,0E0,0E0,0E0,0E0,0E0,0E0,0E0,0E0,0E0,0E0,0E0,0E0,0E0,0E0,0E0],"parents":[2147483647,0,0,1,1,2,2,3,3,4,4,5,5,6,6,7,7,8,8,9,9,10,10,11,11,12,12,13,13,14,14,15,15,16,16,17,17,18,18,19,19,20,20,21,21,22,22,23,23,24,24,25,25,26,26,27,27,28,28,29,29,30,30,31,31,32,32,33,33,34,34,35,35,36,36,38,38,39,39,40,40,41,41,42,42,43,43,44,44,45,45,46,46,47,47,48,48,49,49,50,50,51,51,52,52,53,53,54,54,55,55,56,56,57,57,58,58,59,59,60,60,61,61,62,62],"right_children":[2,4,6,8,10,12,14,16,18,20,22,24,26,28,30,32,34,36,38,40,42,44,46,48,50,52,54,56,58,60,62,64,66,68,70,72,74,-1,76,78,80,82,84,86,88,90,92,94,96,98,100,102,104,106,108,110,112,114,116,118,120,122,124,-1,-1,-1,-1,-1,-1,-1,-1,-1,-1,-1,-1,-1,-1,-1,-1,-1,-1,-1,-1,-1,-1,-1,-1,-1,-1,-1,-1,-1,-1,-1,-1,-1,-1,-1,-1,-1,-1,-1,-1,-1,-1,-1,-1,-1,-1,-1,-1,-1,-1,-1,-1,-1,-1,-1,-1,-1,-1,-1,-1,-1,-1],"split_conditions":[8.5E1,2.021E3,2.022E3,7E0,8.98E2,4.40077E5,4.40029E5,7.5E1,5.70113E5,7.4E1,3.9101E5,8.44E2,1.12E2,7.99E2,1.12E2,9.72E2,1.06E3,7.5E1,6.6E1,2.023E3,2.023E3,7.7E1,1E0,1.15E2,6E0,1.034E3,1.39E2,1.12E2,7E0,9.86E2,1.38E2,8.5101E4,5.10112E5,5.72273E5,7.7E1,6E1,2.00633E5,-1.0489187E4,6.14138E5,6.4E1,5.8E1,5.72273E5,5.72273E5,2.024E3,2.023E3,2.024E3,2.023E3,1E2,1.26E2,1.09E2,1E0,6.71635E5,5.26856E5,1.05E3,6.10121E5,9.8E1,1.38E2,2.024E3,1E0,2.024E3,5.26856E5,1.005E3,2.024E3,-2.5412236E3,-9.362038E3,-9.261144E2,-8.005947E3,-5.3756816E3,-8.6425625E3,8.428471E2,7.393286E3,-5.5309116E3,1.532678E3,9.478218E3,2.271547E3,-4.677822E3,-6.941933E3,-8.914354E3,-6.9961953E3,-8.398925E3,-4.9353115E3,-3.7769414E3,-5.93201E3,-9.5594885E2,-3.4289407E3,3.9522224E3,8.133411E3,1.063653E4,1.7065549E4,-2.9660688E3,3.248594E2,-9.082964E3,-6.4765483E3,-2.1255544E3,8.1013446E2,4.836847E3,1.0037036E4,6.2492725E3,1.039619E4,1.1470367E4,1.6633188E4,-3.721075E3,-6.0718228E3,4.150369E3,-2.1114832E3,-6.4693915E2,3.8712625E3,6.992728E3,3.1033435E3,1.1893881E3,4.2825977E3,1.0250329E4,1.914303E4,1.2241699E4,1.7619793E4,1.8789738E4,2.7139045E4,-5.238077E2,2.2813127E3,1.0401554E4,3.858772E3,5.604314E3,9.6849E3,1.1258294E4,1.5423886E4],"split_indices":[1,4,4,0,6,3,3,1,3,1,3,6,1,6,1,6,6,1,1,4,4,1,7,1,0,6,1,1,0,6,1,3,3,3,1,1,3,0,3,1,1,3,3,4,4,4,4,1,1,1,10,3,3,6,3,1,1,4,10,4,3,6,4,0,0,0,0,0,0,0,0,0,0,0,0,0,0,0,0,0,0,0,0,0,0,0,0,0,0,0,0,0,0,0,0,0,0,0,0,0,0,0,0,0,0,0,0,0,0,0,0,0,0,0,0,0,0,0,0,0,0,0,0,0,0],"split_type":[0,0,0,0,0,0,0,0,0,0,0,0,0,0,0,0,0,0,0,0,0,0,0,0,0,0,0,0,0,0,0,0,0,0,0,0,0,0,0,0,0,0,0,0,0,0,0,0,0,0,0,0,0,0,0,0,0,0,0,0,0,0,0,0,0,0,0,0,0,0,0,0,0,0,0,0,0,0,0,0,0,0,0,0,0,0,0,0,0,0,0,0,0,0,0,0,0,0,0,0,0,0,0,0,0,0,0,0,0,0,0,0,0,0,0,0,0,0,0,0,0,0,0,0,0],"sum_hessian":[1.38045E5,4.0157E4,9.7888E4,1.6313E4,2.3844E4,5.3698E4,4.419E4,1.5984E4,3.29E2,1.7089E4,6.755E3,7.441E3,4.6257E4,5.915E3,3.8275E4,1.2934E4,3.05E3,2.4E2,8.9E1,1.2247E4,4.842E3,1.504E3,5.251E3,2.925E3,4.516E3,2.8177E4,1.808E4,2.037E3,3.878E3,2.3942E4,1.4333E4,1.0619E4,2.315E3,2.976E3,7.4E1,1.68E2,7.2E1,1.7E1,7.2E1,5.205E3,7.042E3,2.131E3,2.711E3,1.252E3,2.52E2,3.825E3,1.426E3,1.613E3,1.312E3,3.055E3,1.461E3,1.8931E4,9.246E3,1.3561E4,4.519E3,1.128E3,9.09E2,2.845E3,1.033E3,1.4136E4,9.806E3,1.1106E4,3.227E3,1.09E2,1.051E4,3.71E2,1.944E3,2.046E3,9.3E2,1.8E1,5.6E1,1.3E1,1.55E2,5.2E1,2E1,2E1,5.2E1,1.122E3,4.083E3,4.57E2,6.585E3,1.436E3,6.95E2,1.776E3,9.35E2,7.96E2,4.56E2,1.65E2,8.7E1,2.333E3,1.492E3,3.51E2,1.075E3,1.102E3,5.11E2,7.97E2,5.15E2,1.98E3,1.075E3,9.02E2,5.59E2,1.231E4,6.621E3,7.62E2,8.484E3,1.0863E4,2.698E3,2.512E3,2.007E3,7.73E2,3.55E2,6.71E2,2.38E2,1.435E3,1.41E3,7.81E2,2.52E2,7.462E3,6.674E3,8.32E2,8.974E3,7.624E3,3.482E3,1.759E3,1.468E3],"tree_param":{"num_deleted":"0","num_feature":"13","num_nodes":"125","size_leaf_vector":"1"}},{"base_weights":[-3.396197E0,-1.079567E5,4.4419418E4,-1.5494473E5,-7.615676E4,-8.33077E3,1.0844716E5,-1.6362227E5,-9.487015E4,-9.8986766E4,-1.7081223E4,3.815341E4,-4.9864785E4,7.158102E4,1.7352336E5,-1.7299884E5,-1.1976956E5,-1.11060516E5,1.2898323E5,-1.1175977E5,-4.200019E4,1.5647099E4,-1.3397558E5,1.9942438E4,1.1160508E5,-8.063896E4,1.9528345E2,2.4970186E4,1.2970435E5,1.4754173E5,2.6395512E5,-1.817617E5,-1.5110808E5,-9.593547E4,-1.1058168E4,-7.697155E4,-1.2014659E5,6.693847E4,1.752585E5,-1.3567666E5,-9.399382E4,-6.481884E4,-2.4339795E3,2.1734897E5,-1.2272704E3,-1.7201458E5,-1.21654984E5,-3.3518586E3,1.17336875E5,9.337409E4,1.6609369E5,-9.123676E4,-4.170153E4,7.117714E4,-1.1952148E4,-4.795946E2,5.429047E4,9.087559E4,1.7285897E5,1.21412484E5,2.0641542E5,2.2625973E5,3.0911975E5,-1.2146753E4,-8.924129E3,-4.6499175E3,-7.809622E3,-3.721617E2,-5.339855E3,-4.7885103E3,3.0972292E3,-5.6321357E3,-7.075031E3,-2.105033E3,3.4728735E3,7.04185E3,1.1646245E4,-8.4807295E3,-6.3856465E3,-6.626242E3,-4.2906323E3,-4.3794146E3,-2.6607583E3,-7.589316E2,8.081365E2,8.883593E3,1.3900013E4,-1.3210769E3,1.9246493E3,-9.541735E3,-7.7565547E3,-6.5421875E3,-4.9769785E3,-8.5260223E2,2.088403E3,1.0649594E4,3.9044766E3,4.2353086E3,8.739551E3,7.9013306E3,1.3167901E4,-4.7485186E3,-3.6675847E3,-2.6744153E3,-1.3268046E3,-3.3399294E3,4.3673843E3,-1.2130208E3,3.1368616E3,-7.9518585E2,1.7841207E3,1.9332992E3,4.5983706E3,4.0831238E3,1.1208875E4,7.9760483E3,1.3929052E4,4.453156E3,7.9512656E3,2.0977012E4,9.412405E3,1.0820959E4,1.5583018E4,1.4781952E4,2.1472365E4],"categories":[],"categories_nodes":[],"categories_segments":[],"categories_sizes":[],"default_left":[0,0,0,0,0,0,0,0,0,0,0,0,0,0,0,0,0,0,0,0,0,0,0,0,0,0,0,0,0,0,0,0,0,0,0,0,0,0,0,0,0,0,0,0,0,0,0,0,0,0,0,0,0,0,0,0,0,0,0,0,0,0,0,0,0,0,0,0,0,0,0,0,0,0,0,0,0,0,0,0,0,0,0,0,0,0,0,0,0,0,0,0,0,0,0,0,0,0,0,0,0,0,0,0,0,0,0,0,0,0,0,0,0,0,0,0,0,0,0,0,0,0,0,0,0],"id":6,"left_children":[1,3,5,7,9,11,13,15,17,19,21,23,25,27,29,31,33,35,37,39,41,43,45,47,49,51,53,55,57,59,61,63,65,67,-1,69,71,73,75,77,79,81,83,85,87,89,91,93,95,97,99,101,103,105,107,109,111,113,115,117,119,121,123,-1,-1,-1,-1,-1,-1,-1,-1,-1,-1,-1,-1,-1,-1,-1,-1,-1,-1,-1,-1,-1,-1,-1,-1,-1,-1,-1,-1,-1,-1,-1,-1,-1,-1,-1,-1,-1,-1,-1,-1,-1,-1,-1,-1,-1,-1,-1,-1,-1,-1,-1,-1,-1,-1,-1,-1,-1,-1,-1,-1,-1,-1],"loss_changes":[6.625203E14,6.0169304E13,3.3057464E14,8.4581663E12,3.2396661E13,1.0361155E14,1.0605697E14,5.8190096E12,7.4585756E12,1.2606736E13,2.5623188E13,3.3871823E13,4.3662495E13,7.646329E13,3.75259E13,2.216505E12,6.032437E12,5.842036E11,3.8735656E11,6.0009417E12,2.8654798E12,1.7811263E13,6.656633E11,4.60421E13,4.982187E12,7.2390415E12,9.305362E12,1.1689169E13,2.1032002E13,1.9084033E13,6.002871E12,1.6313997E12,9.75226E11,1.9503786E12,0E0,1.06617556E12,2.2618204E11,1.967902E10,1.2400774E11,1.6080878E12,2.5495496E12,5.2719308E11,2.7564927E11,9.228203E11,4.8345074E12,8.3513836E10,2.1254426E11,1.0124794E13,1.4688587E13,2.6471553E12,9.470298E11,9.142828E11,6.701507E11,3.5243442E12,8.472841E12,4.6785616E12,4.2814637E12,8.1045236E12,8.342957E12,1.0457188E13,1.4700079E13,1.5696344E12,2.5008454E12,0E0,0E0,0E0,0E0,0E0,0E0,0E0,0E0,0E0,0E0,0E0,0E0,0E0,0E0,0E0,0E0,0E0,0E0,0E0,0E0,0E0,0E0,0E0,0E0,0E0,0E0,0E0,0E0,0E0,0E0,0E0,0E0,0E0,0E0,0E0,0E0,0E0,0E0,0E0,0E0,0E0,0E0,0E0,0E0,0E0,0E0,0E0,0E0,0E0,0E0,0E0,0E0,0E0,0E0,0E0,0E0,0E0,0E0,0E0,0E0,0E0,0E0],"parents":[2147483647,0,0,1,1,2,2,3,3,4,4,5,5,6,6,7,7,8,8,9,9,10,10,11,11,12,12,13,13,14,14,15,15,16,16,17,17,18,18,19,19,20,20,21,21,22,22,23,23,24,24,25,25,26,26,27,27,28,28,29,29,30,30,31,31,32,32,33,33,35,35,36,36,37,37,38,38,39,39,40,40,41,41,42,42,43,43,44,44,45,45,46,46,47,47,48,48,49,49,50,50,51,51,52,52,53,53,54,54,55,55,56,56,57,57,58,58,59,59,60,60,61,61,62,62],"right_children":[2,4,6,8,10,12,14,16,18,20,22,24,26,28,30,32,34,36,38,40,42,44,46,48,50,52,54,56,58,60,62,64,66,68,-1,70,72,74,76,78,80,82,84,86,88,90,92,94,96,98,100,102,104,106,108,110,112,114,116,118,120,122,124,-1,-1,-1,-1,-1,-1,-1,-1,-1,-1,-1,-1,-1,-1,-1,-1,-1,-1,-1,-1,-1,-1,-1,-1,-1,-1,-1,-1,-1,-1,-1,-1,-1,-1,-1,-1,-1,-1,-1,-1,-1,-1,-1,-1,-1,-1,-1,-1,-1,-1,-1,-1,-1,-1,-1,-1,-1,-1,-1,-1,-1,-1],"split_conditions":[8.5E1,2.021E3,2.022E3,1E0,2.001E3,1E0,1.12E2,2.001E3,9.89E2,7.8E1,1E0,1.38E2,2.005E3,2.005E3,1.38E2,7E1,1E0,1.985E3,2.02E3,2.023E3,2.024E3,1E0,2.023E3,2.006E3,2.021E3,2.021E3,9.2E1,2.024E3,2.024E3,2.005E3,2.024E3,5.4E1,1.976E3,6.31E1,-1.1058168E4,1.979E3,1.988E3,2.002E3,1.133E3,6.4E1,6.3E1,2.022E3,2.025E3,2.023E3,2.024E3,2.022E3,2.025E3,2.021E3,2.013E3,1.56E2,1.59E2,1.05E2,8E0,2.006E3,9.5E1,1.05E2,1.05E2,9.9E1,9.5E1,2.024E3,2.013E3,1.56E2,1.56E2,-1.2146753E4,-8.924129E3,-4.6499175E3,-7.809622E3,-3.721617E2,-5.339855E3,-4.7885103E3,3.0972292E3,-5.6321357E3,-7.075031E3,-2.105033E3,3.4728735E3,7.04185E3,1.1646245E4,-8.4807295E3,-6.3856465E3,-6.626242E3,-4.2906323E3,-4.3794146E3,-2.6607583E3,-7.589316E2,8.081365E2,8.883593E3,1.3900013E4,-1.3210769E3,1.9246493E3,-9.541735E3,-7.7565547E3,-6.5421875E3,-4.9769785E3,-8.5260223E2,2.088403E3,1.0649594E4,3.9044766E3,4.2353086E3,8.739551E3,7.9013306E3,1.3167901E4,-4.7485186E3,-3.6675847E3,-2.6744153E3,-1.3268046E3,-3.3399294E3,4.3673843E3,-1.2130208E3,3.1368616E3,-7.9518585E2,1.7841207E3,1.9332992E3,4.5983706E3,4.0831238E3,1.1208875E4,7.9760483E3,1.3929052E4,4.453156E3,7.9512656E3,2.0977012E4,9.412405E3,1.0820959E4,1.5583018E4,1.4781952E4,2.1472365E4],"split_indices":[1,4,4,9,2,9,1,2,6,1,7,1,2,2,1,1,7,2,4,4,4,8,4,2,4,4,1,4,4,2,4,1,2,1,0,2,2,2,6,1,1,4,4,4,4,4,4,4,2,1,1,1,5,2,1,1,1,1,1,4,2,1,1,0,0,0,0,0,0,0,0,0,0,0,0,0,0,0,0,0,0,0,0,0,0,0,0,0,0,0,0,0,0,0,0,0,0,0,0,0,0,0,0,0,0,0,0,0,0,0,0,0,0,0,0,0,0,0,0,0,0,0,0,0,0],"split_type":[0,0,0,0,0,0,0,0,0,0,0,0,0,0,0,0,0,0,0,0,0,0,0,0,0,0,0,0,0,0,0,0,0,0,0,0,0,0,0,0,0,0,0,0,0,0,0,0,0,0,0,0,0,0,0,0,0,0,0,0,0,0,0,0,0,0,0,0,0,0,0,0,0,0,0,0,0,0,0,0,0,0,0,0,0,0,0,0,0,0,0,0,0,0,0,0,0,0,0,0,0,0,0,0,0,0,0,0,0,0,0,0,0,0,0,0,0,0,0,0,0,0,0,0,0],"sum_hessian":[1.3815E5,4.0275E4,9.7875E4,1.6254E4,2.4021E4,5.3664E4,4.4211E4,1.4201E4,2.053E3,1.7325E4,6.696E3,2.5323E4,2.8341E4,2.8224E4,1.5987E4,1.1697E4,2.504E3,1.915E3,1.38E2,1.4152E4,3.173E3,5.232E3,1.464E3,2.0293E4,5.03E3,1.7551E4,1.079E4,1.5664E4,1.256E4,1.2421E4,3.566E3,8.348E3,3.349E3,2.029E3,4.75E2,4.05E2,1.51E3,6E1,7.8E1,6.029E3,8.123E3,2.012E3,1.161E3,4.03E2,4.829E3,3.55E2,1.109E3,1.6377E4,3.916E3,3.771E3,1.259E3,1.3795E4,3.756E3,1.576E3,9.214E3,8.386E3,7.278E3,6.613E3,5.947E3,8.605E3,3.816E3,1.947E3,1.619E3,4.21E2,7.927E3,2.71E2,3.078E3,2.22E2,1.807E3,3.57E2,4.8E1,1.122E3,3.88E2,1E0,5.9E1,5.1E1,2.7E1,1.142E3,4.887E3,1.42E3,6.703E3,6.77E2,1.335E3,6.89E2,4.72E2,2.46E2,1.57E2,2.955E3,1.874E3,1.63E2,1.92E2,7.8E2,3.29E2,1.2563E4,3.814E3,1.138E3,2.778E3,3.41E3,3.61E2,1.165E3,9.4E1,1.1409E4,2.386E3,2.112E3,1.644E3,1.65E2,1.411E3,7.911E3,1.303E3,5.879E3,2.507E3,5.146E3,2.132E3,6.187E3,4.26E2,5.283E3,6.64E2,4.628E3,3.977E3,2.98E2,3.518E3,1.749E3,1.98E2,1.459E3,1.6E2],"tree_param":{"num_deleted":"0","num_feature":"13","num_nodes":"125","size_leaf_vector":"1"}},{"base_weights":[1.22316E1,-1.0322166E5,4.2421395E4,-1.3821636E5,-6.432751E4,-7.79E3,1.0309037E5,-1.4261428E5,3.6984332E4,-8.5187164E4,-1.221828E4,3.5725438E4,-4.6746477E4,9.072768E4,2.8293778E5,-1.5034611E5,-8.7692734E4,-1.3988762E4,1.64856E5,-9.791666E4,-2.810356E4,2.1902281E4,-1.1961208E5,2.5444518E4,1.9331438E5,-5.67894E4,1.0641909E5,5.2599918E4,1.5703664E5,2.3880862E5,3.9995016E5,-1.9854067E5,-1.436078E5,-1.0107381E5,1.28609484E5,-1.4465328E5,-1.265473E3,8.830561E4,2.0540094E5,-1.3419169E5,-9.028785E4,-4.9936984E4,-2.3350005E3,2.380276E5,8.9291455E3,-1.3709969E5,-1.06505875E5,4.815821E3,1.0292615E5,1.4136645E5,2.9886834E5,-7.71248E4,-1.8331504E4,6.28904E4,2.2313088E5,2.163536E4,9.776816E4,1.2833664E5,2.5007461E5,1.9519338E5,2.8981625E5,3.4278884E5,4.910636E5,-1.0769061E4,-9.035411E3,-7.7093687E3,-4.5004526E3,-3.9232468E3,-5.596952E3,2.3108347E3,7.2825054E3,-8.788292E2,-7.6142397E3,2.159764E3,-1.3822572E3,-1.6275593E3,5.8584424E3,8.4018E3,1.1454477E4,-8.715731E3,-6.154293E3,-5.2736274E3,-3.6474888E3,-2.5621453E3,5.6428184E3,-8.008473E2,8.6223926E2,9.134875E3,1.4684677E4,-3.215058E2,4.7382534E3,-7.546008E3,-6.6015757E3,-5.8080537E3,-4.731624E3,-5.1642E2,3.883211E3,4.282682E3,7.70157E3,5.173392E3,8.138029E3,1.7765006E4,8.936065E3,-4.4029E3,-1.8953066E3,4.9527847E3,-1.1190005E3,4.981327E3,2.2954207E3,8.4877295E3,1.3975417E4,-2.016895E2,2.5047026E3,3.0959534E3,6.99445E3,4.756034E3,8.314183E3,1.0780829E4,1.4543265E4,8.0659946E3,1.1784202E4,1.2881717E4,1.682106E4,1.4842591E4,1.9970477E4,1.6256839E4,2.6200373E4],"categories":[],"categories_nodes":[],"categories_segments":[],"categories_sizes":[],"default_left":[0,0,0,0,0,0,0,0,0,0,0,0,0,0,0,0,0,0,0,0,0,0,0,0,0,0,0,0,0,0,0,0,0,0,0,0,0,0,0,0,0,0,0,0,0,0,0,0,0,0,0,0,0,0,0,0,0,0,0,0,0,0,0,0,0,0,0,0,0,0,0,0,0,0,0,0,0,0,0,0,0,0,0,0,0,0,0,0,0,0,0,0,0,0,0,0,0,0,0,0,0,0,0,0,0,0,0,0,0,0,0,0,0,0,0,0,0,0,0,0,0,0,0,0,0,0,0],"id":7,"left_children":[1,3,5,7,9,11,13,15,17,19,21,23,25,27,29,31,33,35,37,39,41,43,45,47,49,51,53,55,57,59,61,63,65,67,69,71,73,75,77,79,81,83,85,87,89,91,93,95,97,99,101,103,105,107,109,111,113,115,117,119,121,123,125,-1,-1,-1,-1,-1,-1,-1,-1,-1,-1,-1,-1,-1,-1,-1,-1,-1,-1,-1,-1,-1,-1,-1,-1,-1,-1,-1,-1,-1,-1,-1,-1,-1,-1,-1,-1,-1,-1,-1,-1,-1,-1,-1,-1,-1,-1,-1,-1,-1,-1,-1,-1,-1,-1,-1,-1,-1,-1,-1,-1,-1,-1,-1,-1],"loss_changes":[6.044791E14,5.471228E13,2.9812744E14,1.6311044E13,2.0698337E13,9.077837E13,9.851085E13,8.753177E12,3.3851556E12,9.878895E12,1.9954932E13,4.097701E13,4.3468735E13,1.0483418E14,1.4620908E13,5.8478664E12,7.393606E12,6.1826046E11,4.4121404E11,3.0649038E12,1.3957336E12,1.1586074E13,2.8633255E11,3.7955406E13,8.451401E12,2.073637E13,8.82063E12,3.6824806E13,4.0391886E13,4.5530344E12,3.8888328E12,6.268639E11,8.99034E12,5.812718E11,2.0246797E11,2.9326311E10,3.9996657E11,1.8869486E11,4.6476296E10,8.385504E11,2.411792E12,2.9129782E11,3.0540238E11,6.6706316E11,5.142277E12,1.9228787E10,7.556091E10,2.0691924E13,4.3942045E12,8.263995E11,3.3943538E12,7.433951E12,4.361619E12,7.8647185E11,1.3729027E12,1.1412965E13,1.616187E13,1.4570073E13,4.952349E12,1.4981257E12,1.3426722E12,1.1351087E12,1.4585692E12,0E0,0E0,0E0,0E0,0E0,0E0,0E0,0E0,0E0,0E0,0E0,0E0,0E0,0E0,0E0,0E0,0E0,0E0,0E0,0E0,0E0,0E0,0E0,0E0,0E0,0E0,0E0,0E0,0E0,0E0,0E0,0E0,0E0,0E0,0E0,0E0,0E0,0E0,0E0,0E0,0E0,0E0,0E0,0E0,0E0,0E0,0E0,0E0,0E0,0E0,0E0,0E0,0E0,0E0,0E0,0E0,0E0,0E0,0E0,0E0,0E0,0E0,0E0,0E0],"parents":[2147483647,0,0,1,1,2,2,3,3,4,4,5,5,6,6,7,7,8,8,9,9,10,10,11,11,12,12,13,13,14,14,15,15,16,16,17,17,18,18,19,19,20,20,21,21,22,22,23,23,24,24,25,25,26,26,27,27,28,28,29,29,30,30,31,31,32,32,33,33,34,34,35,35,36,36,37,37,38,38,39,39,40,40,41,41,42,42,43,43,44,44,45,45,46,46,47,47,48,48,49,49,50,50,51,51,52,52,53,53,54,54,55,55,56,56,57,57,58,58,59,59,60,60,61,61,62,62],"right_children":[2,4,6,8,10,12,14,16,18,20,22,24,26,28,30,32,34,36,38,40,42,44,46,48,50,52,54,56,58,60,62,64,66,68,70,72,74,76,78,80,82,84,86,88,90,92,94,96,98,100,102,104,106,108,110,112,114,116,118,120,122,124,126,-1,-1,-1,-1,-1,-1,-1,-1,-1,-1,-1,-1,-1,-1,-1,-1,-1,-1,-1,-1,-1,-1,-1,-1,-1,-1,-1,-1,-1,-1,-1,-1,-1,-1,-1,-1,-1,-1,-1,-1,-1,-1,-1,-1,-1,-1,-1,-1,-1,-1,-1,-1,-1,-1,-1,-1,-1,-1,-1,-1,-1,-1,-1,-1],"split_conditions":[8.5E1,2.022E3,2.022E3,7E0,9.15E2,1E0,6E0,1E0,1E0,7.8E1,1E0,6E0,6E0,1.12E2,9E0,6E1,1.001E3,6E1,1.097E3,6.2E1,2.024E3,1E0,2.024E3,1.38E2,1.044E3,1.028E3,9E0,9.72E2,1.38E2,2.024E3,9.4E1,5.4E1,9.6E2,7.75E2,1.099E3,2.018E3,6.6E1,6.72E2,8.3E1,5.4E1,2.024E3,6E0,2.025E3,5E0,6E0,4.7E1,2.025E3,1.039E3,2.021E3,7.78E2,1.124E3,2.021E3,8.97E1,9.2E1,9.3E1,2.024E3,2.024E3,2.024E3,2.024E3,9.7E1,1.06E2,2.024E3,9.89E2,-1.0769061E4,-9.035411E3,-7.7093687E3,-4.5004526E3,-3.9232468E3,-5.596952E3,2.3108347E3,7.2825054E3,-8.788292E2,-7.6142397E3,2.159764E3,-1.3822572E3,-1.6275593E3,5.8584424E3,8.4018E3,1.1454477E4,-8.715731E3,-6.154293E3,-5.2736274E3,-3.6474888E3,-2.5621453E3,5.6428184E3,-8.008473E2,8.6223926E2,9.134875E3,1.4684677E4,-3.215058E2,4.7382534E3,-7.546008E3,-6.6015757E3,-5.8080537E3,-4.731624E3,-5.1642E2,3.883211E3,4.282682E3,7.70157E3,5.173392E3,8.138029E3,1.7765006E4,8.936065E3,-4.4029E3,-1.8953066E3,4.9527847E3,-1.1190005E3,4.981327E3,2.2954207E3,8.4877295E3,1.3975417E4,-2.016895E2,2.5047026E3,3.0959534E3,6.99445E3,4.756034E3,8.314183E3,1.0780829E4,1.4543265E4,8.0659946E3,1.1784202E4,1.2881717E4,1.682106E4,1.4842591E4,1.9970477E4,1.6256839E4,2.6200373E4],"split_indices":[1,4,4,0,6,9,0,9,9,1,7,0,0,1,0,1,6,1,6,1,4,8,4,1,6,6,0,6,1,4,1,1,6,6,6,4,1,6,1,1,4,0,4,0,0,1,4,6,4,6,6,4,1,1,1,4,4,4,4,1,1,4,6,0,0,0,0,0,0,0,0,0,0,0,0,0,0,0,0,0,0,0,0,0,0,0,0,0,0,0,0,0,0,0,0,0,0,0,0,0,0,0,0,0,0,0,0,0,0,0,0,0,0,0,0,0,0,0,0,0,0,0,0,0,0,0,0],"split_type":[0,0,0,0,0,0,0,0,0,0,0,0,0,0,0,0,0,0,0,0,0,0,0,0,0,0,0,0,0,0,0,0,0,0,0,0,0,0,0,0,0,0,0,0,0,0,0,0,0,0,0,0,0,0,0,0,0,0,0,0,0,0,0,0,0,0,0,0,0,0,0,0,0,0,0,0,0,0,0,0,0,0,0,0,0,0,0,0,0,0,0,0,0,0,0,0,0,0,0,0,0,0,0,0,0,0,0,0,0,0,0,0,0,0,0,0,0,0,0,0,0,0,0,0,0,0,0],"sum_hessian":[1.38068E5,4.0203E4,9.7865E4,2.1161E4,1.9042E4,5.3548E4,4.4317E4,2.0643E4,5.18E2,1.3598E4,5.444E3,2.5294E4,2.8254E4,4.1468E4,2.849E3,1.8094E4,2.549E3,3.71E2,1.47E2,1.1118E4,2.48E3,4.132E3,1.312E3,2.3746E4,1.548E3,2.6516E4,1.738E3,2.633E4,1.5138E4,2.071E3,7.78E2,2.216E3,1.5878E4,2.401E3,1.48E2,3.2E1,3.39E2,5.2E1,9.5E1,1.929E3,9.189E3,1.342E3,1.138E3,2.33E2,3.899E3,5.58E2,7.54E2,1.8754E4,4.992E3,1.039E3,5.09E2,1.7344E4,9.172E3,1.267E3,4.71E2,1.5622E4,1.0708E4,1.1571E4,3.567E3,1.119E3,9.52E2,4.81E2,2.97E2,1.134E3,1.082E3,1.3259E4,2.619E3,7.82E2,1.619E3,2.6E1,1.22E2,2E0,3E1,1.26E2,2.13E2,1E1,4.2E1,4E1,5.5E1,4.15E2,1.514E3,4.896E3,4.293E3,1.332E3,1E1,6.7E2,4.68E2,1.19E2,1.14E2,3.308E3,5.91E2,1.42E2,4.16E2,4.11E2,3.43E2,1.5527E4,3.227E3,3.733E3,1.259E3,3.77E2,6.62E2,3.45E2,1.64E2,1.3562E4,3.782E3,3.05E2,8.867E3,3.99E2,8.68E2,2.44E2,2.27E2,8.214E3,7.408E3,5.786E3,4.922E3,6.172E3,5.399E3,1.937E3,1.63E3,6.12E2,5.07E2,5.67E2,3.85E2,2.69E2,2.12E2,5.1E1,2.46E2],"tree_param":{"num_deleted":"0","num_feature":"13","num_nodes":"127","size_leaf_vector":"1"}},{"base_weights":[-4.6306145E1,-9.789907E4,4.0237492E4,-1.4069419E5,-6.887593E4,-7.391821E3,9.77618E4,-1.4367677E5,5.8933926E3,-8.918622E4,-1.5822648E4,3.4292242E4,-4.4742227E4,8.604418E4,2.7214062E5,-1.5806522E5,-1.1829114E5,-2.642022E4,1.266328E5,-1.0492213E5,-4.981897E4,1.342381E4,-1.2083677E5,2.446146E4,1.8480206E5,-5.4104613E4,1.0080363E5,5.028484E4,1.4814672E5,2.29192E5,3.8234966E5,-2.0603066E5,-1.52169E5,-1.2507258E5,-2.2351648E4,-1.4302181E5,-1.2172322E4,7.4947664E4,9.037272E3,-1.1957217E5,-7.985932E4,-6.750929E4,-1.8310834E4,-1.2475176E3,1.9564642E5,-1.5478445E5,-1.0964833E5,4.820921E3,9.783968E4,1.28167805E5,2.8360997E5,-7.497273E4,-1.5837298E4,6.0066203E4,2.0869911E5,1.915307E4,9.377992E4,1.2129633E5,2.3787169E5,1.9029027E5,2.7226184E5,3.2432512E5,4.677992E5,-1.0626956E4,-9.454559E3,-8.0453843E3,-5.3589976E3,-7.1197095E3,-5.450137E3,-2.4308623E3,4.789381E3,-3.1334673E3,-7.690133E3,-2.0405667E3,1.5770544E3,-1.580167E3,4.8294956E3,-7.524742E3,-5.6221396E3,-5.797188E3,-3.5977856E3,-4.2158394E3,-2.4618367E3,-2.099007E3,3.6830258E2,-7.7220013E2,3.9939907E3,8.0636196E3,1.2545202E4,-8.516271E3,-7.011415E3,-5.8888794E3,-4.5193994E3,-5.3888055E2,3.8617095E3,4.0371453E3,7.443109E3,5.008816E3,8.861246E3,1.7108094E4,8.875587E3,-4.223484E3,-1.9731735E3,5.069892E3,-9.9957684E2,4.973962E3,2.1221904E3,7.9932197E3,1.299207E4,-1.6104918E2,2.2608877E3,2.9468416E3,6.6307017E3,4.4871587E3,7.8951665E3,9.178013E3,1.3089265E4,8.0419062E3,1.1488456E4,1.3440427E4,3.502767E4,1.4252772E4,1.861153E4,1.4330541E4,2.5174705E4],"categories":[],"categories_nodes":[],"categories_segments":[],"categories_sizes":[],"default_left":[0,0,0,0,0,0,0,0,0,0,0,0,0,0,0,0,0,0,0,0,0,0,0,0,0,0,0,0,0,0,0,0,0,0,0,0,0,0,0,0,0,0,0,0,0,0,0,0,0,0,0,0,0,0,0,0,0,0,0,0,0,0,0,0,0,0,0,0,0,0,0,0,0,0,0,0,0,0,0,0,0,0,0,0,0,0,0,0,0,0,0,0,0,0,0,0,0,0,0,0,0,0,0,0,0,0,0,0,0,0,0,0,0,0,0,0,0,0,0,0,0,0,0,0,0],"id":8,"left_children":[1,3,5,7,9,11,13,15,17,19,21,23,25,27,29,31,33,35,37,39,41,43,45,47,49,51,53,55,57,59,61,63,65,67,69,71,73,75,-1,77,79,81,83,85,87,89,91,93,95,97,99,101,103,105,107,109,111,113,115,117,119,121,123,-1,-1,-1,-1,-1,-1,-1,-1,-1,-1,-1,-1,-1,-1,-1,-1,-1,-1,-1,-1,-1,-1,-1,-1,-1,-1,-1,-1,-1,-1,-1,-1,-1,-1,-1,-1,-1,-1,-1,-1,-1,-1,-1,-1,-1,-1,-1,-1,-1,-1,-1,-1,-1,-1,-1,-1,-1,-1,-1,-1,-1,-1],"loss_changes":[5.45237E14,5.0090828E13,2.6845602E14,7.1273976E12,2.5900188E13,8.345538E13,9.0660485E13,5.8162917E12,1.2752433E12,1.0763196E13,2.0444137E13,3.747745E13,3.852913E13,9.234891E13,1.3137282E13,2.8513885E12,3.759665E12,4.2688165E11,1.7943416E11,4.549981E12,2.766758E12,1.3920886E13,5.3376922E11,3.4270979E13,8.654103E12,2.1211132E13,7.4991786E12,3.573642E13,3.6580606E13,3.3209576E12,3.7255654E12,8.251874E10,3.552911E12,1.4878706E12,1.1931053E12,1.4616756E10,2.904782E11,8.837467E10,0E0,1.7103785E12,1.2990011E12,9.724777E11,1.08636576E12,5.5525376E12,6.965145E11,5.6874762E10,1.6064499E11,2.1191014E13,4.3678979E12,1.3403234E12,3.44919E12,5.7933153E12,4.5678665E12,8.58411E11,1.1272989E12,8.971673E12,1.4889821E13,1.349779E13,4.496378E12,1.1967062E12,1.2212052E12,7.761895E11,1.8864931E12,0E0,0E0,0E0,0E0,0E0,0E0,0E0,0E0,0E0,0E0,0E0,0E0,0E0,0E0,0E0,0E0,0E0,0E0,0E0,0E0,0E0,0E0,0E0,0E0,0E0,0E0,0E0,0E0,0E0,0E0,0E0,0E0,0E0,0E0,0E0,0E0,0E0,0E0,0E0,0E0,0E0,0E0,0E0,0E0,0E0,0E0,0E0,0E0,0E0,0E0,0E0,0E0,0E0,0E0,0E0,0E0,0E0,0E0,0E0,0E0,0E0,0E0],"parents":[2147483647,0,0,1,1,2,2,3,3,4,4,5,5,6,6,7,7,8,8,9,9,10,10,11,11,12,12,13,13,14,14,15,15,16,16,17,17,18,18,19,19,20,20,21,21,22,22,23,23,24,24,25,25,26,26,27,27,28,28,29,29,30,30,31,31,32,32,33,33,34,34,35,35,36,36,37,37,39,39,40,40,41,41,42,42,43,43,44,44,45,45,46,46,47,47,48,48,49,49,50,50,51,51,52,52,53,53,54,54,55,55,56,56,57,57,58,58,59,59,60,60,61,61,62,62],"right_children":[2,4,6,8,10,12,14,16,18,20,22,24,26,28,30,32,34,36,38,40,42,44,46,48,50,52,54,56,58,60,62,64,66,68,70,72,74,76,-1,78,80,82,84,86,88,90,92,94,96,98,100,102,104,106,108,110,112,114,116,118,120,122,124,-1,-1,-1,-1,-1,-1,-1,-1,-1,-1,-1,-1,-1,-1,-1,-1,-1,-1,-1,-1,-1,-1,-1,-1,-1,-1,-1,-1,-1,-1,-1,-1,-1,-1,-1,-1,-1,-1,-1,-1,-1,-1,-1,-1,-1,-1,-1,-1,-1,-1,-1,-1,-1,-1,-1,-1,-1,-1,-1,-1,-1,-1],"split_conditions":[8.5E1,2.021E3,2.022E3,7E0,2.001E3,1E0,6E0,6.9E1,1E0,7.4E1,1E0,6E0,6E0,1.12E2,9E0,5.8E1,2.001E3,6E1,1.095E3,2.024E3,2.024E3,1E0,2.023E3,1.38E2,2.006E3,2.005E3,9E0,2.005E3,1.38E2,2.024E3,9.4E1,4.9E1,2.001E3,7.6E1,7.6E1,6.8E2,9E0,1.975E3,9.037272E3,1.974E3,1.974E3,1E0,1E0,6E0,2.023E3,2.022E3,2.025E3,2.006E3,2.021E3,1.2E2,2.013E3,2.021E3,8.97E1,9.2E1,9.3E1,2.024E3,2.024E3,2.024E3,2.023E3,1.036E2,1.51E2,2.024E3,2.006E3,-1.0626956E4,-9.454559E3,-8.0453843E3,-5.3589976E3,-7.1197095E3,-5.450137E3,-2.4308623E3,4.789381E3,-3.1334673E3,-7.690133E3,-2.0405667E3,1.5770544E3,-1.580167E3,4.8294956E3,-7.524742E3,-5.6221396E3,-5.797188E3,-3.5977856E3,-4.2158394E3,-2.4618367E3,-2.099007E3,3.6830258E2,-7.7220013E2,3.9939907E3,8.0636196E3,1.2545202E4,-8.516271E3,-7.011415E3,-5.8888794E3,-4.5193994E3,-5.3888055E2,3.8617095E3,4.0371453E3,7.443109E3,5.008816E3,8.861246E3,1.7108094E4,8.875587E3,-4.223484E3,-1.9731735E3,5.069892E3,-9.9957684E2,4.973962E3,2.1221904E3,7.9932197E3,1.299207E4,-1.6104918E2,2.2608877E3,2.9468416E3,6.6307017E3,4.4871587E3,7.8951665E3,9.178013E3,1.3089265E4,8.0419062E3,1.1488456E4,1.3440427E4,3.502767E4,1.4252772E4,1.861153E4,1.4330541E4,2.5174705E4],"split_indices":[1,4,4,0,2,9,0,1,9,1,7,0,0,1,0,1,2,1,6,4,4,9,4,1,2,2,0,2,1,4,1,1,2,1,1,6,0,2,0,2,2,9,9,0,4,4,4,2,4,1,2,4,1,1,1,4,4,4,4,1,1,4,2,0,0,0,0,0,0,0,0,0,0,0,0,0,0,0,0,0,0,0,0,0,0,0,0,0,0,0,0,0,0,0,0,0,0,0,0,0,0,0,0,0,0,0,0,0,0,0,0,0,0,0,0,0,0,0,0,0,0,0,0,0,0],"split_type":[0,0,0,0,0,0,0,0,0,0,0,0,0,0,0,0,0,0,0,0,0,0,0,0,0,0,0,0,0,0,0,0,0,0,0,0,0,0,0,0,0,0,0,0,0,0,0,0,0,0,0,0,0,0,0,0,0,0,0,0,0,0,0,0,0,0,0,0,0,0,0,0,0,0,0,0,0,0,0,0,0,0,0,0,0,0,0,0,0,0,0,0,0,0,0,0,0,0,0,0,0,0,0,0,0,0,0,0,0,0,0,0,0,0,0,0,0,0,0,0,0,0,0,0,0],"sum_hessian":[1.38317E5,4.0336E4,9.7981E4,1.6299E4,2.4037E4,5.3601E4,4.438E4,1.5974E4,3.25E2,1.7382E4,6.655E3,2.5331E4,2.827E4,4.1587E4,2.793E3,1.0192E4,5.782E3,2.57E2,6.8E1,1.2417E4,4.965E3,5.206E3,1.449E3,2.3779E4,1.552E3,2.6562E4,1.708E3,2.6392E4,1.5195E4,2.012E3,7.81E2,1.112E3,9.08E3,5.4E3,3.82E2,2.7E1,2.3E2,3.6E1,3.2E1,7.834E3,4.583E3,3.179E3,1.786E3,4.819E3,3.87E2,3.56E2,1.093E3,1.8759E4,5.02E3,9.88E2,5.64E2,1.7188E4,9.374E3,1.241E3,4.67E2,1.5383E4,1.1009E4,1.1697E4,3.498E3,1.06E3,9.52E2,4.68E2,3.13E2,7.95E2,3.17E2,7.601E3,1.479E3,2.595E3,2.805E3,3.13E2,6.9E1,4E0,2.3E1,1.39E2,9.1E1,6E0,3E1,1.464E3,6.37E3,8.21E2,3.762E3,1.654E3,1.525E3,9.29E2,8.57E2,4.102E3,7.17E2,2.41E2,1.46E2,1.67E2,1.89E2,7.65E2,3.28E2,1.5435E4,3.324E3,3.762E3,1.258E3,6.31E2,3.57E2,3.62E2,2.02E2,1.356E4,3.628E3,3.2E2,9.054E3,3.82E2,8.59E2,2.41E2,2.26E2,8.278E3,7.105E3,5.804E3,5.205E3,6.284E3,5.413E3,1.072E3,2.426E3,6.1E2,4.5E2,9.46E2,6E0,2.61E2,2.07E2,5.3E1,2.6E2],"tree_param":{"num_deleted":"0","num_feature":"13","num_nodes":"125","size_leaf_vector":"1"}},{"base_weights":[-2.3749051E2,-9.308102E4,3.8106496E4,-1.1010709E5,-3.6669977E4,2.799449E4,1.9077833E5,-1.2371338E5,-7.591423E4,-1.0934034E4,-1.3367517E5,-3.4259373E3,8.019525E4,1.5267186E5,3.0387797E5,-1.7375688E5,-1.20085055E5,-6.0493094E4,-1.02074516E5,1.6275973E5,-2.4805664E4,-1.5534736E5,-1.080149E5,-3.0766637E4,4.286554E4,5.8115617E4,1.4771602E5,1.3710017E5,2.4826136E5,2.0984486E5,3.400576E5,-1.8815798E5,-1.5604084E5,-1.14927195E5,-1.410982E5,-2.5379135E4,-8.201836E4,-9.2563484E4,-1.20234984E5,7.498152E4,1.904322E5,-3.779633E4,4.928057E4,-1.27290836E5,-1.8198106E5,-1.13315984E5,-8.952863E4,-4.140095E4,-6.142231E3,3.701547E4,1.748107E5,3.9391746E4,1.1811894E5,2.2877752E5,1.30195336E5,8.4604414E4,1.7641658E5,1.9891298E5,2.7516397E5,2.0117877E5,2.1751967E4,3.1896675E5,4.8069444E5,-8.35051E3,-9.59268E3,-8.144937E3,-5.0199E3,-6.1295493E3,-4.096497E3,-7.354E3,-6.27791E3,-2.8781235E3,-3.234946E2,-2.6975076E3,-4.410562E3,-3.3337898E3,-5.0141665E3,-5.7443564E3,-6.8516416E3,-3.1004892E2,5.9710405E3,7.8747983E3,1.1277808E4,-2.1724448E3,3.7071133E3,8.7717303E2,5.504133E3,-8.902001E3,-6.0087007E3,-8.1262593E3,-9.4297705E3,-4.915762E3,-5.930655E3,-5.441096E3,-4.0708816E3,-1.6959144E3,-3.5021992E3,4.6400537E2,-2.4165105E3,3.2576052E3,3.6350656E2,8.0064214E3,1.4973429E4,2.8823882E3,-2.2844402E2,5.335743E3,1.1403147E4,1.1218975E4,2.2274582E4,7.4615986E3,4.218773E3,5.841854E3,1.1448654E3,7.8062017E3,1.23482E4,4.704458E3,1.1317164E4,1.7336953E4,1.2902679E4,1.1362705E4,8.195338E3,1.0558646E4,1.6769334E4,3.0194457E4,2.0568107E4],"categories":[],"categories_nodes":[],"categories_segments":[],"categories_sizes":[],"default_left":[0,0,0,0,0,0,0,0,0,0,0,0,0,0,0,0,0,0,0,0,0,0,0,0,0,0,0,0,0,0,0,0,0,0,0,0,0,0,0,0,0,0,0,0,0,0,0,0,0,0,0,0,0,0,0,0,0,0,0,0,0,0,0,0,0,0,0,0,0,0,0,0,0,0,0,0,0,0,0,0,0,0,0,0,0,0,0,0,0,0,0,0,0,0,0,0,0,0,0,0,0,0,0,0,0,0,0,0,0,0,0,0,0,0,0,0,0,0,0,0,0,0,0,0,0],"id":9,"left_children":[1,3,5,7,9,11,13,15,17,19,21,23,25,27,29,31,33,35,37,39,41,43,45,47,49,51,53,55,57,59,61,63,65,67,69,71,73,75,77,79,81,83,85,87,89,91,93,95,97,99,101,103,105,107,109,111,113,115,117,119,-1,121,123,-1,-1,-1,-1,-1,-1,-1,-1,-1,-1,-1,-1,-1,-1,-1,-1,-1,-1,-1,-1,-1,-1,-1,-1,-1,-1,-1,-1,-1,-1,-1,-1,-1,-1,-1,-1,-1,-1,-1,-1,-1,-1,-1,-1,-1,-1,-1,-1,-1,-1,-1,-1,-1,-1,-1,-1,-1,-1,-1,-1,-1,-1],"loss_changes":[4.922756E14,3.8814794E13,1.5107732E14,1.4434378E13,2.3395928E13,1.505433E14,2.6153029E13,4.0113317E12,3.5600707E12,1.785299E13,1.0759837E12,7.2520045E13,5.140727E13,6.737109E12,5.137234E12,3.530849E11,2.2282827E12,4.2033973E12,5.5488964E11,1.3168342E12,6.6050924E12,7.7116264E11,7.8345404E10,9.432858E12,1.6416229E13,2.9196089E13,1.2039532E13,8.063348E12,7.896197E11,7.4774584E11,3.1213088E12,3.2199672E10,2.4236576E11,4.196183E12,3.605172E11,1.2873459E12,5.947565E11,4.239854E11,8.513913E10,4.8056363E11,4.4572554E11,3.6971579E12,1.9740633E12,1.6677549E11,3.922513E10,4.3802165E10,2.3376691E10,5.389643E12,7.0702727E12,1.7051215E13,1.6047722E12,1.5899501E13,7.7254634E12,1.3382934E12,6.0844755E12,3.3348408E12,3.163906E12,6.342826E11,4.1141718E11,3.6511102E11,0E0,1.6336562E12,9.6445714E11,0E0,0E0,0E0,0E0,0E0,0E0,0E0,0E0,0E0,0E0,0E0,0E0,0E0,0E0,0E0,0E0,0E0,0E0,0E0,0E0,0E0,0E0,0E0,0E0,0E0,0E0,0E0,0E0,0E0,0E0,0E0,0E0,0E0,0E0,0E0,0E0,0E0,0E0,0E0,0E0,0E0,0E0,0E0,0E0,0E0,0E0,0E0,0E0,0E0,0E0,0E0,0E0,0E0,0E0,0E0,0E0,0E0,0E0,0E0,0E0,0E0,0E0],"parents":[2147483647,0,0,1,1,2,2,3,3,4,4,5,5,6,6,7,7,8,8,9,9,10,10,11,11,12,12,13,13,14,14,15,15,16,16,17,17,18,18,19,19,20,20,21,21,22,22,23,23,24,24,25,25,26,26,27,27,28,28,29,29,30,30,31,31,32,32,33,33,34,34,35,35,36,36,37,37,38,38,39,39,40,40,41,41,42,42,43,43,44,44,45,45,46,46,47,47,48,48,49,49,50,50,51,51,52,52,53,53,54,54,55,55,56,56,57,57,58,58,59,59,61,61,62,62],"right_children":[2,4,6,8,10,12,14,16,18,20,22,24,26,28,30,32,34,36,38,40,42,44,46,48,50,52,54,56,58,60,62,64,66,68,70,72,74,76,78,80,82,84,86,88,90,92,94,96,98,100,102,104,106,108,110,112,114,116,118,120,-1,122,124,-1,-1,-1,-1,-1,-1,-1,-1,-1,-1,-1,-1,-1,-1,-1,-1,-1,-1,-1,-1,-1,-1,-1,-1,-1,-1,-1,-1,-1,-1,-1,-1,-1,-1,-1,-1,-1,-1,-1,-1,-1,-1,-1,-1,-1,-1,-1,-1,-1,-1,-1,-1,-1,-1,-1,-1,-1,-1,-1,-1,-1,-1],"split_conditions":[8.5E1,2.001E3,6E0,7.4E1,1E0,1.12E2,9E0,5.8E1,7.64E2,1E0,2.016E3,2.005E3,1.38E2,2.017E3,9.3E1,5.2E1,7.62E2,1E0,1E0,2.01E3,6E0,1.103E3,2.02E3,1.05E2,2.02E3,2.005E3,7.62E2,9.7E1,2.018E3,2.02E3,1.3E1,5.49E2,1.974E3,1.984E3,1.988E3,1.979E3,6.54E2,7.8E2,8.04E2,3E0,2.015E3,2.02E3,2.017E3,2.012E3,1.118E3,1.122E3,3.9E1,9.4E2,9.68E2,1.116E3,9.4E1,9.17E2,2.019E3,1.65E2,8.87E2,1.104E3,2.006E3,9.3E1,1.121E3,1.09E3,2.1751967E4,2.006E3,1.06E3,-8.35051E3,-9.59268E3,-8.144937E3,-5.0199E3,-6.1295493E3,-4.096497E3,-7.354E3,-6.27791E3,-2.8781235E3,-3.234946E2,-2.6975076E3,-4.410562E3,-3.3337898E3,-5.0141665E3,-5.7443564E3,-6.8516416E3,-3.1004892E2,5.9710405E3,7.8747983E3,1.1277808E4,-2.1724448E3,3.7071133E3,8.7717303E2,5.504133E3,-8.902001E3,-6.0087007E3,-8.1262593E3,-9.4297705E3,-4.915762E3,-5.930655E3,-5.441096E3,-4.0708816E3,-1.6959144E3,-3.5021992E3,4.6400537E2,-2.4165105E3,3.2576052E3,3.6350656E2,8.0064214E3,1.4973429E4,2.8823882E3,-2.2844402E2,5.335743E3,1.1403147E4,1.1218975E4,2.2274582E4,7.4615986E3,4.218773E3,5.841854E3,1.1448654E3,7.8062017E3,1.23482E4,4.704458E3,1.1317164E4,1.7336953E4,1.2902679E4,1.1362705E4,8.195338E3,1.0558646E4,1.6769334E4,3.0194457E4,2.0568107E4],"split_indices":[1,2,0,1,7,1,0,1,6,8,2,2,1,2,1,1,6,8,8,2,0,6,2,1,2,2,6,1,2,2,0,6,2,2,2,2,6,6,6,0,2,2,2,2,6,6,1,6,6,6,1,6,2,1,6,6,2,1,6,6,0,2,6,0,0,0,0,0,0,0,0,0,0,0,0,0,0,0,0,0,0,0,0,0,0,0,0,0,0,0,0,0,0,0,0,0,0,0,0,0,0,0,0,0,0,0,0,0,0,0,0,0,0,0,0,0,0,0,0,0,0,0,0,0,0],"split_type":[0,0,0,0,0,0,0,0,0,0,0,0,0,0,0,0,0,0,0,0,0,0,0,0,0,0,0,0,0,0,0,0,0,0,0,0,0,0,0,0,0,0,0,0,0,0,0,0,0,0,0,0,0,0,0,0,0,0,0,0,0,0,0,0,0,0,0,0,0,0,0,0,0,0,0,0,0,0,0,0,0,0,0,0,0,0,0,0,0,0,0,0,0,0,0,0,0,0,0,0,0,0,0,0,0,0,0,0,0,0,0,0,0,0,0,0,0,0,0,0,0,0,0,0,0],"sum_hessian":[1.38278E5,4.0416E4,9.7862E4,3.1045E4,9.371E3,9.1784E4,6.078E3,2.2206E4,8.839E3,7.407E3,1.964E3,5.7297E4,3.4487E4,4.548E3,1.53E3,1.498E3,2.0708E4,5.563E3,3.276E3,5.47E2,6.86E3,1.062E3,9.02E2,3.6022E4,2.1275E4,2.599E4,8.497E3,3.913E3,6.35E2,4.27E2,1.103E3,8.21E2,6.77E2,1.6632E4,4.076E3,2.115E3,3.448E3,2.154E3,1.122E3,1.32E2,4.15E2,5.837E3,1.023E3,5.2E2,5.42E2,6.97E2,2.05E2,2.5157E4,1.0865E4,2.0373E4,9.02E2,1.981E4,6.18E3,1.508E3,6.989E3,1.677E3,2.236E3,2.27E2,4.08E2,4.13E2,1.4E1,9.62E2,1.41E2,1.29E2,6.92E2,6.01E2,7.6E1,1.3495E4,3.137E3,2.937E3,1.139E3,7.82E2,1.333E3,6.25E2,2.823E3,4.97E2,1.657E3,8.57E2,2.65E2,4.7E1,8.5E1,2.17E2,1.98E2,5.557E3,2.8E2,6.73E2,3.5E2,6.1E1,4.59E2,1.44E2,3.98E2,1.87E2,5.1E2,5.7E1,1.48E2,1.9948E4,5.209E3,7.957E3,2.908E3,1.0469E4,9.904E3,8.09E2,9.3E1,1.3997E4,5.813E3,5.601E3,5.79E2,1.48E3,2.8E1,4.936E3,2.053E3,1.101E3,5.76E2,1.739E3,4.97E2,4.8E1,1.79E2,7.5E1,3.33E2,2.4E2,1.73E2,1.29E2,8.33E2,4.8E1,9.3E1],"tree_param":{"num_deleted":"0","num_feature":"13","num_nodes":"125","size_leaf_vector":"1"}},{"base_weights":[-5.0126354E1,-8.823717E4,3.6166383E4,-1.04221055E5,-3.527519E4,1.6921325E5,1.4930997E4,-1.1743644E5,-7.108595E4,7.05388E4,-8.2533625E4,7.6569984E4,2.2594142E5,-1.7584844E4,6.734865E4,3.2783774E3,-1.18836836E5,-5.2629137E4,-1.07133414E5,5.2026215E4,1.8405766E5,-1.2839855E5,-6.5031402E4,1.5360289E5,4.0943723E3,1.7728312E5,2.8387372E5,-3.9255734E4,1.938247E4,4.741082E4,1.3308388E5,-5.3085477E4,1.9123088E4,-1.4613412E5,-1.12360664E5,-5.830852E4,5.363414E4,-9.1093E4,-1.2932165E5,-1.0180364E5,6.4280395E4,1.4929028E5,2.2716647E5,-1.5250725E5,-9.978938E4,-8.31672E4,-3.1445434E4,1.1372841E5,2.2483639E5,-1.4625556E4,4.8599895E4,1.36813E5,2.3615238E5,3.908336E5,2.5478328E5,-1.4265099E4,-5.711178E4,7.547044E4,-2.3065437E3,2.6870514E4,1.1097851E5,1.7069561E5,9.529632E4,-1.7530836E3,-3.1449001E3,-4.671984E3,1.1856802E3,-8.886855E3,-6.9065234E3,-5.227578E3,-6.523428E3,7.632932E3,-3.020859E3,6.550744E3,1.2914486E3,-6.1741055E3,-3.4084314E3,-6.705396E3,-4.7479023E3,-2.707887E3,-5.9901E3,4.297513E3,2.7691943E2,1.2776741E4,6.1825015E3,1.4872515E4,1.0198073E4,-6.333274E3,-8.814132E3,-5.8498306E3,-4.6778027E3,-1.9530453E3,-5.362514E3,-5.072589E1,-2.082308E3,9.628907E3,4.789748E3,1.3019114E4,9.314384E3,-3.9389473E3,-4.8753952E2,5.426642E3,1.5428535E3,7.045026E3,-8.089603E2,1.2557873E4,6.047277E3,2.7943092E4,1.7974646E4,2.0078857E4,1.2087628E4,-1.2575227E3,6.190949E3,-3.5119128E3,-7.417946E2,3.024292E3,1.2500927E4,-8.5701483E2,2.6083105E3,3.220877E3,-5.041464E2,1.8846646E4,4.9990454E3,7.333144E3,1.8600055E4,3.950916E3,1.0978108E4],"categories":[],"categories_nodes":[],"categories_segments":[],"categories_sizes":[],"default_left":[0,0,0,0,0,0,0,0,0,0,0,0,0,0,0,0,0,0,0,0,0,0,0,0,0,0,0,0,0,0,0,0,0,0,0,0,0,0,0,0,0,0,0,0,0,0,0,0,0,0,0,0,0,0,0,0,0,0,0,0,0,0,0,0,0,0,0,0,0,0,0,0,0,0,0,0,0,0,0,0,0,0,0,0,0,0,0,0,0,0,0,0,0,0,0,0,0,0,0,0,0,0,0,0,0,0,0,0,0,0,0,0,0,0,0,0,0,0,0,0,0,0,0,0,0,0,0],"id":10,"left_children":[1,3,5,7,9,11,13,15,17,19,21,23,25,27,29,31,33,35,37,39,41,43,45,47,49,51,53,55,57,59,61,63,65,67,69,71,73,75,77,79,81,83,85,87,89,91,93,95,97,99,101,103,105,107,109,111,113,115,117,119,121,123,125,-1,-1,-1,-1,-1,-1,-1,-1,-1,-1,-1,-1,-1,-1,-1,-1,-1,-1,-1,-1,-1,-1,-1,-1,-1,-1,-1,-1,-1,-1,-1,-1,-1,-1,-1,-1,-1,-1,-1,-1,-1,-1,-1,-1,-1,-1,-1,-1,-1,-1,-1,-1,-1,-1,-1,-1,-1,-1,-1,-1,-1,-1,-1,-1],"loss_changes":[4.4082796E14,3.4011913E13,2.7643342E14,1.3507672E13,4.6596444E13,7.075831E13,1.4381367E14,3.7302798E12,5.851184E12,6.036518E12,5.162085E12,2.8562034E13,2.3493001E13,4.1718804E13,4.233056E13,2.2785468E11,3.8393652E12,3.5179672E12,1.04882976E12,4.672065E12,5.70094E11,1.211122E12,2.8382666E12,7.0186183E12,2.1977013E12,1.0788757E13,1.1758412E13,1.4649047E13,2.3412792E13,3.2361396E13,1.0667306E13,7.698776E9,1.05043304E11,1.03248665E12,2.47979E12,2.4688365E12,6.3348507E11,1.2783347E12,1.9252694E11,1.50443E11,2.9183548E12,5.840584E11,2.2963814E11,5.693348E11,7.6577505E10,3.2121972E12,5.0811122E11,2.232716E12,1.1696488E12,5.799764E11,8.2715043E11,1.686991E12,3.1659697E12,4.0804538E12,5.6394766E12,2.056995E13,1.0624826E13,1.4022445E13,1.1216425E13,2.5995306E13,1.7666492E13,1.8165052E13,7.572193E12,0E0,0E0,0E0,0E0,0E0,0E0,0E0,0E0,0E0,0E0,0E0,0E0,0E0,0E0,0E0,0E0,0E0,0E0,0E0,0E0,0E0,0E0,0E0,0E0,0E0,0E0,0E0,0E0,0E0,0E0,0E0,0E0,0E0,0E0,0E0,0E0,0E0,0E0,0E0,0E0,0E0,0E0,0E0,0E0,0E0,0E0,0E0,0E0,0E0,0E0,0E0,0E0,0E0,0E0,0E0,0E0,0E0,0E0,0E0,0E0,0E0,0E0,0E0,0E0],"parents":[2147483647,0,0,1,1,2,2,3,3,4,4,5,5,6,6,7,7,8,8,9,9,10,10,11,11,12,12,13,13,14,14,15,15,16,16,17,17,18,18,19,19,20,20,21,21,22,22,23,23,24,24,25,25,26,26,27,27,28,28,29,29,30,30,31,31,32,32,33,33,34,34,35,35,36,36,37,37,38,38,39,39,40,40,41,41,42,42,43,43,44,44,45,45,46,46,47,47,48,48,49,49,50,50,51,51,52,52,53,53,54,54,55,55,56,56,57,57,58,58,59,59,60,60,61,61,62,62],"right_children":[2,4,6,8,10,12,14,16,18,20,22,24,26,28,30,32,34,36,38,40,42,44,46,48,50,52,54,56,58,60,62,64,66,68,70,72,74,76,78,80,82,84,86,88,90,92,94,96,98,100,102,104,106,108,110,112,114,116,118,120,122,124,126,-1,-1,-1,-1,-1,-1,-1,-1,-1,-1,-1,-1,-1,-1,-1,-1,-1,-1,-1,-1,-1,-1,-1,-1,-1,-1,-1,-1,-1,-1,-1,-1,-1,-1,-1,-1,-1,-1,-1,-1,-1,-1,-1,-1,-1,-1,-1,-1,-1,-1,-1,-1,-1,-1,-1,-1,-1,-1,-1,-1,-1,-1,-1,-1],"split_conditions":[8.5E1,2.001E3,4.40077E5,7.4E1,5.26856E5,1.993E3,1.12E2,8.5101E4,5.72273E5,7.7E1,6.03E1,1E0,2.01E3,2.006E3,1.4E2,1.976E3,6.2E1,5.61308E5,7.8E2,5.1E1,2.015E3,2.018E3,2.017E3,1.26E2,1.002E2,1.1E2,1E0,6.00036E5,5.72273E5,2.009E3,6.00036E5,6.24E2,5.3E1,1E0,6.00209E5,8.5101E4,7.56E2,1.985E3,1.993E3,1.08E3,3.9101E5,1.08E3,1.116E3,1.104E3,3.9E1,1.101E3,1.121E3,6.29E2,7.51E2,1.974E3,7.28E2,4.00305E5,4.00305E5,1.055E3,9.0017E4,5.61308E5,1E0,5.50121E5,2.018E3,6.00314E5,2.012E3,5.60102E5,1.64E2,-1.7530836E3,-3.1449001E3,-4.671984E3,1.1856802E3,-8.886855E3,-6.9065234E3,-5.227578E3,-6.523428E3,7.632932E3,-3.020859E3,6.550744E3,1.2914486E3,-6.1741055E3,-3.4084314E3,-6.705396E3,-4.7479023E3,-2.707887E3,-5.9901E3,4.297513E3,2.7691943E2,1.2776741E4,6.1825015E3,1.4872515E4,1.0198073E4,-6.333274E3,-8.814132E3,-5.8498306E3,-4.6778027E3,-1.9530453E3,-5.362514E3,-5.072589E1,-2.082308E3,9.628907E3,4.789748E3,1.3019114E4,9.314384E3,-3.9389473E3,-4.8753952E2,5.426642E3,1.5428535E3,7.045026E3,-8.089603E2,1.2557873E4,6.047277E3,2.7943092E4,1.7974646E4,2.0078857E4,1.2087628E4,-1.2575227E3,6.190949E3,-3.5119128E3,-7.417946E2,3.024292E3,1.2500927E4,-8.5701483E2,2.6083105E3,3.220877E3,-5.041464E2,1.8846646E4,4.9990454E3,7.333144E3,1.8600055E4,3.950916E3,1.0978108E4],"split_indices":[1,2,3,1,3,2,1,3,3,1,1,9,2,2,1,2,1,3,6,1,2,2,2,1,1,1,9,3,3,2,3,6,1,8,3,3,6,2,2,6,3,6,6,6,1,6,6,6,6,2,6,3,3,6,3,3,10,3,2,3,2,3,1,0,0,0,0,0,0,0,0,0,0,0,0,0,0,0,0,0,0,0,0,0,0,0,0,0,0,0,0,0,0,0,0,0,0,0,0,0,0,0,0,0,0,0,0,0,0,0,0,0,0,0,0,0,0,0,0,0,0,0,0,0,0,0,0],"split_type":[0,0,0,0,0,0,0,0,0,0,0,0,0,0,0,0,0,0,0,0,0,0,0,0,0,0,0,0,0,0,0,0,0,0,0,0,0,0,0,0,0,0,0,0,0,0,0,0,0,0,0,0,0,0,0,0,0,0,0,0,0,0,0,0,0,0,0,0,0,0,0,0,0,0,0,0,0,0,0,0,0,0,0,0,0,0,0,0,0,0,0,0,0,0,0,0,0,0,0,0,0,0,0,0,0,0,0,0,0,0,0,0,0,0,0,0,0,0,0,0,0,0,0,0,0,0,0],"sum_hessian":[1.38023E5,4.0181E4,9.7842E4,3.0865E4,9.316E3,1.3466E4,8.4376E4,2.2063E4,8.802E3,2.876E3,6.44E3,5.115E3,8.351E3,5.2074E4,3.2302E4,2.53E2,2.181E4,5.823E3,2.979E3,2.474E3,4.02E2,1.777E3,4.663E3,2.479E3,2.636E3,4.541E3,3.81E3,3.2829E4,1.9245E4,2.4786E4,7.516E3,5.5E1,1.98E2,4.178E3,1.7632E4,5.528E3,2.95E2,1.732E3,1.247E3,1.82E2,2.292E3,2.25E2,1.77E2,9.62E2,8.15E2,3.027E3,1.636E3,1.591E3,8.88E2,1.856E3,7.8E2,2.693E3,1.848E3,8.12E2,2.998E3,1.3682E4,1.9147E4,5.366E3,1.3879E4,1.8734E4,6.052E3,3.765E3,3.751E3,2.1E1,3.4E1,7E0,1.91E2,8.4E2,3.338E3,1.2324E4,5.308E3,5.4E1,5.474E3,7.7E1,2.18E2,7.16E2,1.016E3,1.092E3,1.55E2,5.1E1,1.31E2,1.674E3,6.18E2,4.2E1,1.83E2,4.1E1,1.36E2,4.64E2,4.98E2,2.12E2,6.03E2,1.07E3,1.957E3,4.11E2,1.225E3,2.93E2,1.298E3,4.59E2,4.29E2,1.3E2,1.726E3,1.77E2,6.03E2,2.623E3,7E1,1.634E3,2.14E2,1.25E2,6.87E2,2.42E2,2.756E3,1.2683E4,9.99E2,1.461E4,4.537E3,4.943E3,4.23E2,1.0909E4,2.97E3,9.292E3,9.442E3,2.39E2,5.813E3,3.365E3,4E2,3.318E3,4.33E2],"tree_param":{"num_deleted":"0","num_feature":"13","num_nodes":"127","size_leaf_vector":"1"}},{"base_weights":[4.5274574E1,-8.410023E4,3.467932E4,-9.90875E4,-3.443086E4,1.6153777E5,1.4388372E4,-1.1468001E5,-7.425195E4,8.4778695E4,-7.218467E4,7.397572E4,2.1487673E5,-1.6734904E4,6.455702E4,-1.5621008E5,-1.11152984E5,-5.539199E4,-1.0526219E5,6.795294E4,1.9170867E5,-1.2200961E5,-5.402813E4,1.4713695E5,3.8777925E3,1.697936E5,2.7018534E5,-3.772469E4,1.889124E4,1.0378279E5,3.3360402E4,-1.6921422E5,-1.3982186E5,4.5607563E3,-1.1245934E5,-5.9805234E4,4.681062E4,-8.803038E4,-1.2568477E5,4.9962375E4,1.496694E5,1.5442225E5,2.1653698E5,-1.4403977E5,-9.650336E4,1.8819283E4,-6.1841117E4,1.0986937E5,2.1402E5,-1.4999434E4,4.7855324E4,1.3180553E5,2.2486681E5,4.7507044E5,2.559281E5,-1.3902121E4,-5.449494E4,7.2904414E4,-2.084295E3,8.196731E4,3.006317E5,1.5156571E4,8.153457E4,-9.062088E3,-8.154521E3,-7.2979297E3,-4.4963687E3,-2.0253756E3,8.745878E2,-5.3231753E3,-6.6353438E3,-1.806456E3,-3.6664343E3,5.5912373E3,1.150715E3,-5.8906587E3,-3.2997935E3,-6.517183E3,-4.6913027E3,-4.5133335E3,2.882626E3,6.830875E3,9.132175E3,1.2517286E4,6.4574946E3,1.4318528E4,9.693918E3,-5.9798022E3,-8.541573E3,-5.103104E3,-3.8818755E3,-1.229844E2,6.326282E3,-3.9092805E3,-1.5459413E3,8.7021045E3,4.3135645E3,1.2187732E4,8.197088E3,-2.7146973E3,-3.6401178E2,5.4949043E3,1.4154296E3,6.79807E3,-1.0659431E3,1.2016727E4,5.615058E3,2.9039576E4,1.9853908E4,1.7330918E4,1.1595759E4,-1.2141348E3,5.906865E3,-3.3405876E3,-7.5798706E2,2.9416917E3,1.1743688E4,-8.0923083E2,2.4990117E3,2.7667385E3,7.112859E3,1.5626474E4,7.9967925E3,-4.7177887E2,4.9250596E3,3.540416E3,9.983246E3],"categories":[],"categories_nodes":[],"categories_segments":[],"categories_sizes":[],"default_left":[0,0,0,0,0,0,0,0,0,0,0,0,0,0,0,0,0,0,0,0,0,0,0,0,0,0,0,0,0,0,0,0,0,0,0,0,0,0,0,0,0,0,0,0,0,0,0,0,0,0,0,0,0,0,0,0,0,0,0,0,0,0,0,0,0,0,0,0,0,0,0,0,0,0,0,0,0,0,0,0,0,0,0,0,0,0,0,0,0,0,0,0,0,0,0,0,0,0,0,0,0,0,0,0,0,0,0,0,0,0,0,0,0,0,0,0,0,0,0,0,0,0,0,0,0,0,0],"id":11,"left_children":[1,3,5,7,9,11,13,15,17,19,21,23,25,27,29,31,33,35,37,39,41,43,45,47,49,51,53,55,57,59,61,63,65,67,69,71,73,75,77,79,81,83,85,87,89,91,93,95,97,99,101,103,105,107,109,111,113,115,117,119,121,123,125,-1,-1,-1,-1,-1,-1,-1,-1,-1,-1,-1,-1,-1,-1,-1,-1,-1,-1,-1,-1,-1,-1,-1,-1,-1,-1,-1,-1,-1,-1,-1,-1,-1,-1,-1,-1,-1,-1,-1,-1,-1,-1,-1,-1,-1,-1,-1,-1,-1,-1,-1,-1,-1,-1,-1,-1,-1,-1,-1,-1,-1,-1,-1,-1],"loss_changes":[4.0140976E14,2.989351E13,2.5116593E14,1.1938902E13,4.1911348E13,6.282527E13,1.3135024E14,2.7585266E12,6.955079E12,4.0171324E12,6.3910833E12,2.6128882E13,2.0802137E13,3.882272E13,3.9408607E13,2.919655E11,2.6415056E12,3.3418872E12,1.5725662E12,2.840155E12,2.4799242E11,1.046978E12,2.9522353E12,6.1904655E12,2.1616601E12,9.612967E12,1.084132E13,1.305085E13,2.1807275E13,6.124288E13,1.5732201E13,3.091202E10,1.8926377E11,1.1493299E11,2.0831766E12,2.269689E12,4.7238526E11,1.5960962E12,2.9308328E11,1.7187532E12,1.25247685E11,2.7069488E11,2.292984E11,6.416614E11,8.415189E10,1.1531272E12,2.3644151E12,2.4124924E12,1.2867831E12,5.522576E11,9.4524644E11,1.7401706E12,3.246341E12,1.7730162E12,7.565635E12,1.850384E13,9.287523E12,1.2256331E13,1.0179474E13,2.0616992E13,2.3320666E12,2.669112E13,6.2199725E12,0E0,0E0,0E0,0E0,0E0,0E0,0E0,0E0,0E0,0E0,0E0,0E0,0E0,0E0,0E0,0E0,0E0,0E0,0E0,0E0,0E0,0E0,0E0,0E0,0E0,0E0,0E0,0E0,0E0,0E0,0E0,0E0,0E0,0E0,0E0,0E0,0E0,0E0,0E0,0E0,0E0,0E0,0E0,0E0,0E0,0E0,0E0,0E0,0E0,0E0,0E0,0E0,0E0,0E0,0E0,0E0,0E0,0E0,0E0,0E0,0E0,0E0,0E0,0E0],"parents":[2147483647,0,0,1,1,2,2,3,3,4,4,5,5,6,6,7,7,8,8,9,9,10,10,11,11,12,12,13,13,14,14,15,15,16,16,17,17,18,18,19,19,20,20,21,21,22,22,23,23,24,24,25,25,26,26,27,27,28,28,29,29,30,30,31,31,32,32,33,33,34,34,35,35,36,36,37,37,38,38,39,39,40,40,41,41,42,42,43,43,44,44,45,45,46,46,47,47,48,48,49,49,50,50,51,51,52,52,53,53,54,54,55,55,56,56,57,57,58,58,59,59,60,60,61,61,62,62],"right_children":[2,4,6,8,10,12,14,16,18,20,22,24,26,28,30,32,34,36,38,40,42,44,46,48,50,52,54,56,58,60,62,64,66,68,70,72,74,76,78,80,82,84,86,88,90,92,94,96,98,100,102,104,106,108,110,112,114,116,118,120,122,124,126,-1,-1,-1,-1,-1,-1,-1,-1,-1,-1,-1,-1,-1,-1,-1,-1,-1,-1,-1,-1,-1,-1,-1,-1,-1,-1,-1,-1,-1,-1,-1,-1,-1,-1,-1,-1,-1,-1,-1,-1,-1,-1,-1,-1,-1,-1,-1,-1,-1,-1,-1,-1,-1,-1,-1,-1,-1,-1,-1,-1,-1,-1,-1,-1],"split_conditions":[8.5E1,2.001E3,4.40077E5,7E1,5.10112E5,1.993E3,1.12E2,5.8E1,5.72273E5,7.7E1,6.03E1,1E0,2.01E3,2.006E3,6.00036E5,5.2E1,8.5101E4,5.61308E5,7.77E2,2.018E3,8.3E1,2.016E3,5.30113E5,1.26E2,1.002E2,1.1E2,1.044E3,6.00036E5,5.72273E5,5.61308E5,1E0,4.4E1,1.974E3,1.976E3,6.00252E5,4.40077E5,7.56E2,1.985E3,1.99E3,5.1E1,2.02E3,1.08E3,1.116E3,1.108E3,2.02E3,7E1,2.017E3,1.976E3,7.62E2,1.975E3,7.28E2,4.00305E5,4.00305E5,9.0017E4,1E0,5.61308E5,1E0,5.50121E5,2.018E3,1.35E2,1E0,2.016E3,1.64E2,-9.062088E3,-8.154521E3,-7.2979297E3,-4.4963687E3,-2.0253756E3,8.745878E2,-5.3231753E3,-6.6353438E3,-1.806456E3,-3.6664343E3,5.5912373E3,1.150715E3,-5.8906587E3,-3.2997935E3,-6.517183E3,-4.6913027E3,-4.5133335E3,2.882626E3,6.830875E3,9.132175E3,1.2517286E4,6.4574946E3,1.4318528E4,9.693918E3,-5.9798022E3,-8.541573E3,-5.103104E3,-3.8818755E3,-1.229844E2,6.326282E3,-3.9092805E3,-1.5459413E3,8.7021045E3,4.3135645E3,1.2187732E4,8.197088E3,-2.7146973E3,-3.6401178E2,5.4949043E3,1.4154296E3,6.79807E3,-1.0659431E3,1.2016727E4,5.615058E3,2.9039576E4,1.9853908E4,1.7330918E4,1.1595759E4,-1.2141348E3,5.906865E3,-3.3405876E3,-7.5798706E2,2.9416917E3,1.1743688E4,-8.0923083E2,2.4990117E3,2.7667385E3,7.112859E3,1.5626474E4,7.9967925E3,-4.7177887E2,4.9250596E3,3.540416E3,9.983246E3],"split_indices":[1,2,3,1,3,2,1,1,3,1,1,9,2,2,3,1,3,3,6,2,1,2,3,1,1,1,6,3,3,3,11,1,2,2,3,3,6,2,2,1,2,6,6,6,2,1,2,2,6,2,6,3,3,3,9,3,10,3,2,1,9,2,1,0,0,0,0,0,0,0,0,0,0,0,0,0,0,0,0,0,0,0,0,0,0,0,0,0,0,0,0,0,0,0,0,0,0,0,0,0,0,0,0,0,0,0,0,0,0,0,0,0,0,0,0,0,0,0,0,0,0,0,0,0,0,0,0],"split_type":[0,0,0,0,0,0,0,0,0,0,0,0,0,0,0,0,0,0,0,0,0,0,0,0,0,0,0,0,0,0,0,0,0,0,0,0,0,0,0,0,0,0,0,0,0,0,0,0,0,0,0,0,0,0,0,0,0,0,0,0,0,0,0,0,0,0,0,0,0,0,0,0,0,0,0,0,0,0,0,0,0,0,0,0,0,0,0,0,0,0,0,0,0,0,0,0,0,0,0,0,0,0,0,0,0,0,0,0,0,0,0,0,0,0,0,0,0,0,0,0,0,0,0,0,0,0,0],"sum_hessian":[1.37736E5,4.0161E4,9.7575E4,3.0851E4,9.31E3,1.3454E4,8.4121E4,1.895E4,1.1901E4,2.239E3,7.071E3,5.094E3,8.36E3,5.1915E4,3.2206E4,1.48E3,1.747E4,7.402E3,4.499E3,1.936E3,3.03E2,1.887E3,5.184E3,2.492E3,2.602E3,4.608E3,3.752E3,3.2668E4,1.9247E4,1.4266E4,1.794E4,8.2E2,6.6E2,1.95E2,1.7275E4,7.096E3,3.06E2,2.443E3,2.056E3,1.588E3,3.48E2,1.24E2,1.79E2,1.01E3,8.77E2,5.02E2,4.682E3,1.602E3,8.9E2,1.821E3,7.81E2,2.729E3,1.879E3,2.42E2,3.51E3,1.3497E4,1.9171E4,5.383E3,1.3864E4,1.2844E4,1.422E3,1.3021E4,4.919E3,2.67E2,5.53E2,5.86E2,7.4E1,4.3E1,1.52E2,1.3333E4,3.942E3,2.581E3,4.515E3,8.1E1,2.25E2,1.037E3,1.406E3,1.791E3,2.65E2,8.2E1,1.506E3,2.53E2,9.5E1,2.4E1,1E2,4.1E1,1.38E2,5.31E2,4.79E2,6.74E2,2.03E2,4.2E2,8.2E1,3.062E3,1.62E3,4.29E2,1.173E3,5.56E2,3.34E2,2.98E2,1.523E3,1.86E2,5.95E2,2.657E3,7.2E1,1.651E3,2.28E2,1E2,1.42E2,7.32E2,2.778E3,1.2514E4,9.83E2,1.4599E4,4.572E3,4.954E3,4.29E2,1.091E4,2.954E3,8.91E3,3.934E3,1.31E3,1.12E2,1.0055E4,2.966E3,4.511E3,4.08E2],"tree_param":{"num_deleted":"0","num_feature":"13","num_nodes":"127","size_leaf_vector":"1"}},{"base_weights":[-1.2940237E2,-7.979865E4,3.2592695E4,-1.1052319E5,-4.5637637E4,-1.5935322E3,1.0260826E5,-1.1833243E5,-5.7926484E4,-6.1559785E4,-6.2259956E3,3.3484777E4,-3.2465686E4,1.4743681E5,6.998176E4,-1.265698E5,-8.362112E4,-7.7871734E4,1.2193777E5,-7.146894E4,-1.6650883E4,2.0570164E4,-9.241793E4,6.7153843E3,7.5301805E4,-5.744619E4,5.3886724E3,1.302085E5,2.3035508E5,3.040677E4,1.1286382E5,-1.335713E5,-1.0871876E5,-6.681476E4,-1.5784767E5,1.968857E3,-8.0340484E4,9.9852836E4,1.5707802E5,-7.8523516E4,-4.1378098E4,-3.653369E4,6.3161597E3,1.90093E5,1.0754319E4,-9.936406E4,-7.15942E4,-6.808404E3,5.6208168E4,6.0866832E4,1.3498186E5,-7.381383E4,-2.693154E4,-1.9783143E4,3.3661043E4,1.0664129E5,1.9382031E5,2.1897484E5,3.298365E5,1.904843E4,6.2783797E4,9.710597E4,1.581922E5,-9.029722E3,-6.557858E3,-3.108693E3,-5.649061E3,-2.578362E2,-3.8592292E3,-8.182191E3,-7.0139883E3,-1.8969696E3,6.7172363E2,-3.7127083E3,-5.27482E3,5.577052E3,3.5082063E3,8.262917E3,2.618404E3,-5.4083335E3,-3.6266895E3,-4.0863047E3,-1.6552858E3,-1.500742E3,-2.7999514E3,-2.095286E2,1.0733263E3,6.968107E3,1.0898932E4,-7.0493385E1,3.186279E3,-5.321707E3,-4.4959834E3,-4.29048E3,-3.3985935E3,-1.1402349E3,3.276677E3,2.4506045E3,6.519814E3,2.0144725E3,5.772266E3,6.2669155E3,1.026333E4,-4.1024E3,-3.438479E3,-2.1353955E3,-8.644377E2,1.3446171E3,-1.7292119E3,1.4200939E3,5.10973E3,4.688626E3,7.1975503E3,1.5141778E4,8.319265E3,1.0121656E4,1.328368E4,2.0107564E4,1.42606455E4,7.3416915E0,1.5063312E3,2.012415E3,3.9518066E3,7.466357E3,4.500243E3,7.3695977E3,1.1280163E4],"categories":[],"categories_nodes":[],"categories_segments":[],"categories_sizes":[],"default_left":[0,0,0,0,0,0,0,0,0,0,0,0,0,0,0,0,0,0,0,0,0,0,0,0,0,0,0,0,0,0,0,0,0,0,0,0,0,0,0,0,0,0,0,0,0,0,0,0,0,0,0,0,0,0,0,0,0,0,0,0,0,0,0,0,0,0,0,0,0,0,0,0,0,0,0,0,0,0,0,0,0,0,0,0,0,0,0,0,0,0,0,0,0,0,0,0,0,0,0,0,0,0,0,0,0,0,0,0,0,0,0,0,0,0,0,0,0,0,0,0,0,0,0,0,0,0,0],"id":12,"left_children":[1,3,5,7,9,11,13,15,17,19,21,23,25,27,29,31,33,35,37,39,41,43,45,47,49,51,53,55,57,59,61,63,65,67,69,71,73,75,77,79,81,83,85,87,89,91,93,95,97,99,101,103,105,107,109,111,113,115,117,119,121,123,125,-1,-1,-1,-1,-1,-1,-1,-1,-1,-1,-1,-1,-1,-1,-1,-1,-1,-1,-1,-1,-1,-1,-1,-1,-1,-1,-1,-1,-1,-1,-1,-1,-1,-1,-1,-1,-1,-1,-1,-1,-1,-1,-1,-1,-1,-1,-1,-1,-1,-1,-1,-1,-1,-1,-1,-1,-1,-1,-1,-1,-1,-1,-1,-1],"loss_changes":[3.603502E14,4.223431E13,2.3452917E14,8.6955136E12,1.195885E13,7.129989E13,4.700637E13,5.263952E12,9.842662E12,6.039366E12,1.2670126E13,3.4499904E13,3.3115012E13,1.9312488E13,3.1573705E13,1.8486311E12,4.4067707E12,4.866158E11,1.9695822E11,2.3572827E12,1.1213047E12,6.961838E12,1.8106915E11,1.2578429E13,1.0354524E13,1.0534968E13,9.909204E12,1.6789346E13,2.5633573E12,3.5578813E12,6.363145E12,1.1913333E12,8.2723E11,1.8467804E12,4.3536876E10,3.4827645E10,3.5870422E11,5.1512214E10,8.042814E10,1.5913777E12,7.0289274E11,1.6530866E11,1.815561E11,2.935798E11,2.5497919E12,5.5398367E10,1.1108483E10,1.7081812E13,2.1466804E12,1.0875772E13,1.5616694E12,5.6467076E11,1.1199903E12,5.0897187E12,2.360794E12,3.915886E12,9.011848E12,1.5622356E12,6.5008776E11,1.500524E12,9.172167E11,2.44478E12,1.6427327E12,0E0,0E0,0E0,0E0,0E0,0E0,0E0,0E0,0E0,0E0,0E0,0E0,0E0,0E0,0E0,0E0,0E0,0E0,0E0,0E0,0E0,0E0,0E0,0E0,0E0,0E0,0E0,0E0,0E0,0E0,0E0,0E0,0E0,0E0,0E0,0E0,0E0,0E0,0E0,0E0,0E0,0E0,0E0,0E0,0E0,0E0,0E0,0E0,0E0,0E0,0E0,0E0,0E0,0E0,0E0,0E0,0E0,0E0,0E0,0E0,0E0,0E0,0E0,0E0],"parents":[2147483647,0,0,1,1,2,2,3,3,4,4,5,5,6,6,7,7,8,8,9,9,10,10,11,11,12,12,13,13,14,14,15,15,16,16,17,17,18,18,19,19,20,20,21,21,22,22,23,23,24,24,25,25,26,26,27,27,28,28,29,29,30,30,31,31,32,32,33,33,34,34,35,35,36,36,37,37,38,38,39,39,40,40,41,41,42,42,43,43,44,44,45,45,46,46,47,47,48,48,49,49,50,50,51,51,52,52,53,53,54,54,55,55,56,56,57,57,58,58,59,59,60,60,61,61,62,62],"right_children":[2,4,6,8,10,12,14,16,18,20,22,24,26,28,30,32,34,36,38,40,42,44,46,48,50,52,54,56,58,60,62,64,66,68,70,72,74,76,78,80,82,84,86,88,90,92,94,96,98,100,102,104,106,108,110,112,114,116,118,120,122,124,126,-1,-1,-1,-1,-1,-1,-1,-1,-1,-1,-1,-1,-1,-1,-1,-1,-1,-1,-1,-1,-1,-1,-1,-1,-1,-1,-1,-1,-1,-1,-1,-1,-1,-1,-1,-1,-1,-1,-1,-1,-1,-1,-1,-1,-1,-1,-1,-1,-1,-1,-1,-1,-1,-1,-1,-1,-1,-1,-1,-1,-1,-1,-1,-1],"split_conditions":[8.5E1,2.022E3,2.023E3,1E0,2.002E3,1E0,1E0,2.001E3,2.005E3,7.9E1,1E0,2.021E3,2.005E3,1.4E2,2.005E3,7E1,1E0,7.8E1,2.015E3,2.025E3,2.024E3,1E0,2.025E3,1.36E2,1.38E2,2.021E3,2.021E3,2.006E3,1.56E2,2.025E3,2.025E3,5.4E1,1.976E3,6.6E1,2.021E3,7.5E1,1.988E3,8.3E1,2.017E3,6.2E1,1.974E3,1E0,2.025E3,2.023E3,2.025E3,2.024E3,4.5E1,2.005E3,1.56E2,9.98E2,1.54E2,9.5E1,9.5E1,2.012E3,9.5E1,2.025E3,2.015E3,2.025E3,8.09E2,9.5E1,9.9E1,2.012E3,9.4E1,-9.029722E3,-6.557858E3,-3.108693E3,-5.649061E3,-2.578362E2,-3.8592292E3,-8.182191E3,-7.0139883E3,-1.8969696E3,6.7172363E2,-3.7127083E3,-5.27482E3,5.577052E3,3.5082063E3,8.262917E3,2.618404E3,-5.4083335E3,-3.6266895E3,-4.0863047E3,-1.6552858E3,-1.500742E3,-2.7999514E3,-2.095286E2,1.0733263E3,6.968107E3,1.0898932E4,-7.0493385E1,3.186279E3,-5.321707E3,-4.4959834E3,-4.29048E3,-3.3985935E3,-1.1402349E3,3.276677E3,2.4506045E3,6.519814E3,2.0144725E3,5.772266E3,6.2669155E3,1.026333E4,-4.1024E3,-3.438479E3,-2.1353955E3,-8.644377E2,1.3446171E3,-1.7292119E3,1.4200939E3,5.10973E3,4.688626E3,7.1975503E3,1.5141778E4,8.319265E3,1.0121656E4,1.328368E4,2.0107564E4,1.42606455E4,7.3416915E0,1.5063312E3,2.012415E3,3.9518066E3,7.466357E3,4.500243E3,7.3695977E3,1.1280163E4],"split_indices":[1,4,4,9,2,9,9,2,2,1,7,4,2,1,2,1,7,1,2,4,4,8,4,1,1,4,4,2,1,4,4,1,2,1,4,1,2,1,2,1,2,8,4,4,4,4,1,2,1,6,1,1,1,2,1,4,2,4,6,1,1,2,1,0,0,0,0,0,0,0,0,0,0,0,0,0,0,0,0,0,0,0,0,0,0,0,0,0,0,0,0,0,0,0,0,0,0,0,0,0,0,0,0,0,0,0,0,0,0,0,0,0,0,0,0,0,0,0,0,0,0,0,0,0,0,0,0],"split_type":[0,0,0,0,0,0,0,0,0,0,0,0,0,0,0,0,0,0,0,0,0,0,0,0,0,0,0,0,0,0,0,0,0,0,0,0,0,0,0,0,0,0,0,0,0,0,0,0,0,0,0,0,0,0,0,0,0,0,0,0,0,0,0,0,0,0,0,0,0,0,0,0,0,0,0,0,0,0,0,0,0,0,0,0,0,0,0,0,0,0,0,0,0,0,0,0,0,0,0,0,0,0,0,0,0,0,0,0,0,0,0,0,0,0,0,0,0,0,0,0,0,0,0,0,0,0,0],"sum_hessian":[1.38225E5,4.0243E4,9.7982E4,2.1186E4,1.9057E4,6.5837E4,3.2145E4,1.8446E4,2.74E3,1.3573E4,5.484E3,3.0819E4,3.5018E4,1.3539E4,1.8606E4,1.4906E4,3.54E3,2.467E3,2.73E2,1.1119E4,2.454E3,4.184E3,1.3E3,1.8791E4,1.2028E4,2.1096E4,1.3922E4,1.1212E4,2.327E3,9.677E3,8.929E3,1.0702E4,4.204E3,2.888E3,6.52E2,7.4E1,2.393E3,1.7E2,1.03E2,9.006E3,2.113E3,1.315E3,1.139E3,2.28E2,3.956E3,9.72E2,3.28E2,1.4759E4,4.032E3,9.687E3,2.341E3,1.373E4,7.366E3,7.365E3,6.557E3,8.183E3,3.029E3,2.091E3,2.36E2,7.165E3,2.512E3,6.628E3,2.301E3,5.19E2,1.0183E4,3.54E2,3.85E3,4.16E2,2.472E3,4.84E2,1.68E2,1.6E1,5.8E1,1.93E3,4.63E2,1.2E2,5E1,9.5E1,8E0,1.511E3,7.495E3,3.58E2,1.755E3,9.87E2,3.28E2,6.73E2,4.66E2,8.3E1,1.45E2,3.218E3,7.38E2,5.5E2,4.22E2,6.2E1,2.66E2,1.2087E4,2.672E3,3.677E3,3.55E2,7.036E3,2.651E3,2.061E3,2.8E2,5.21E3,8.52E3,2.793E3,4.573E3,1.773E3,5.592E3,6.091E3,4.66E2,6.087E3,2.096E3,6.07E2,2.422E3,1.548E3,5.43E2,8.7E1,1.49E2,2.648E3,4.517E3,1.054E3,1.458E3,7.91E2,5.837E3,1.986E3,3.15E2],"tree_param":{"num_deleted":"0","num_feature":"13","num_nodes":"127","size_leaf_vector":"1"}},{"base_weights":[-1.4507307E2,-7.600074E4,3.1064771E4,-8.950029E4,-3.0877404E4,2.2189064E4,1.6490228E5,-1.0392522E5,-6.66684E4,-4.125927E4,1.371388E5,-3.433557E3,6.4881605E4,1.3123598E5,2.6320838E5,-1.2663325E5,-9.809081E4,-5.2451742E4,-9.099668E4,-2.1464844E4,-1.09160945E5,1.07620125E5,1.8703192E5,-2.5424098E4,3.351635E4,4.652199E4,1.21023836E5,1.20592016E5,2.4108142E5,1.8079431E5,2.953303E5,-1.09307055E5,-1.3675695E5,-9.249429E4,-1.1910245E5,-1.7652004E4,-6.604215E4,-7.564241E4,-1.0532245E5,-3.2641314E4,4.3705855E4,-1.2751497E5,-8.664886E4,5.395971E4,1.2997738E5,2.7309694E5,1.7193394E5,-4.1657215E4,-1.2099399E4,2.820142E4,1.5363789E5,3.0898023E4,9.672923E4,2.030509E5,1.0747892E5,1.0337313E5,2.0810856E5,2.0727427E5,2.6876397E5,1.7352722E5,1.9398475E4,2.7868825E5,4.0807778E5,-6.4978394E3,-4.8539775E3,-7.795694E3,-6.5051377E3,-4.9521484E3,-3.1982725E3,-6.1330005E3,-5.083268E3,-2.4218894E3,4.0479584E1,-2.2042947E3,-3.6156177E3,-3.0577117E3,-4.2961074E3,-4.8841533E3,-5.921417E3,-1.879577E3,3.3159927E3,8.4014594E2,4.905926E3,-4.851419E3,-7.29129E3,-4.5731064E3,-3.488323E3,-2.5226055E1,4.3841836E3,5.2387163E3,7.1685737E3,7.4032925E3,1.4388304E4,6.009021E3,9.607966E3,1.1791197E4,-2.1205566E3,-2.3243285E2,-2.2811665E3,2.6785945E3,7.0670364E1,6.9836226E3,1.3360687E4,2.3506465E3,-4.076688E2,4.291855E3,9.957716E3,9.655468E3,1.4890659E4,6.16764E3,3.1049028E3,5.798752E3,2.4217888E3,9.978507E3,2.6418156E4,1.2857167E4,9.794487E3,1.2431929E4,1.7554992E4,9.875432E3,7.058685E3,1.2842596E4,1.7143809E4,2.5482957E4,1.7508426E4],"categories":[],"categories_nodes":[],"categories_segments":[],"categories_sizes":[],"default_left":[0,0,0,0,0,0,0,0,0,0,0,0,0,0,0,0,0,0,0,0,0,0,0,0,0,0,0,0,0,0,0,0,0,0,0,0,0,0,0,0,0,0,0,0,0,0,0,0,0,0,0,0,0,0,0,0,0,0,0,0,0,0,0,0,0,0,0,0,0,0,0,0,0,0,0,0,0,0,0,0,0,0,0,0,0,0,0,0,0,0,0,0,0,0,0,0,0,0,0,0,0,0,0,0,0,0,0,0,0,0,0,0,0,0,0,0,0,0,0,0,0,0,0,0,0],"id":13,"left_children":[1,3,5,7,9,11,13,15,17,19,21,23,25,27,29,31,33,35,37,39,41,43,45,47,49,51,53,55,57,59,61,63,65,67,69,71,73,75,77,79,81,83,85,87,89,91,93,95,97,99,101,103,105,107,109,111,113,115,117,119,-1,121,123,-1,-1,-1,-1,-1,-1,-1,-1,-1,-1,-1,-1,-1,-1,-1,-1,-1,-1,-1,-1,-1,-1,-1,-1,-1,-1,-1,-1,-1,-1,-1,-1,-1,-1,-1,-1,-1,-1,-1,-1,-1,-1,-1,-1,-1,-1,-1,-1,-1,-1,-1,-1,-1,-1,-1,-1,-1,-1,-1,-1,-1,-1],"loss_changes":[3.2646107E14,2.4483008E13,1.1605324E14,1.0183099E13,1.6154587E13,1.0022722E14,2.007461E13,2.4994193E12,4.1394048E12,1.1717988E13,7.737002E11,4.6527372E13,3.5416082E13,5.265026E12,4.0472769E12,6.642184E11,1.7632183E12,3.5766445E12,9.638259E11,4.920166E12,8.021019E11,4.0208407E11,2.1162728E11,7.7640656E12,1.3635252E13,2.0312343E13,9.386542E12,6.2021383E12,3.1770385E11,5.9060624E11,1.9746448E12,3.4920936E11,2.9074915E11,2.2204394E12,1.8418028E11,1.2083613E12,7.4573677E11,3.1287096E11,2.17007E11,2.8266505E12,1.4461094E12,5.8986175E11,6.5696432E10,1.8739272E11,6.599554E10,8.746303E9,1.5694456E11,3.3952555E12,4.924414E12,1.3905042E13,1.3981314E12,1.2431139E13,6.8395425E12,1.0720473E12,5.229433E12,2.3849526E12,1.7485215E12,5.409184E10,2.7062488E11,3.0109126E11,0E0,1.2757227E12,6.5096856E11,0E0,0E0,0E0,0E0,0E0,0E0,0E0,0E0,0E0,0E0,0E0,0E0,0E0,0E0,0E0,0E0,0E0,0E0,0E0,0E0,0E0,0E0,0E0,0E0,0E0,0E0,0E0,0E0,0E0,0E0,0E0,0E0,0E0,0E0,0E0,0E0,0E0,0E0,0E0,0E0,0E0,0E0,0E0,0E0,0E0,0E0,0E0,0E0,0E0,0E0,0E0,0E0,0E0,0E0,0E0,0E0,0E0,0E0,0E0,0E0,0E0,0E0],"parents":[2147483647,0,0,1,1,2,2,3,3,4,4,5,5,6,6,7,7,8,8,9,9,10,10,11,11,12,12,13,13,14,14,15,15,16,16,17,17,18,18,19,19,20,20,21,21,22,22,23,23,24,24,25,25,26,26,27,27,28,28,29,29,30,30,31,31,32,32,33,33,34,34,35,35,36,36,37,37,38,38,39,39,40,40,41,41,42,42,43,43,44,44,45,45,46,46,47,47,48,48,49,49,50,50,51,51,52,52,53,53,54,54,55,55,56,56,57,57,58,58,59,59,61,61,62,62],"right_children":[2,4,6,8,10,12,14,16,18,20,22,24,26,28,30,32,34,36,38,40,42,44,46,48,50,52,54,56,58,60,62,64,66,68,70,72,74,76,78,80,82,84,86,88,90,92,94,96,98,100,102,104,106,108,110,112,114,116,118,120,-1,122,124,-1,-1,-1,-1,-1,-1,-1,-1,-1,-1,-1,-1,-1,-1,-1,-1,-1,-1,-1,-1,-1,-1,-1,-1,-1,-1,-1,-1,-1,-1,-1,-1,-1,-1,-1,-1,-1,-1,-1,-1,-1,-1,-1,-1,-1,-1,-1,-1,-1,-1,-1,-1,-1,-1,-1,-1,-1,-1,-1,-1,-1,-1],"split_conditions":[8.5E1,2.002E3,6E0,7E1,1E0,1.12E2,9E0,1.974E3,7.64E2,1E0,2.015E3,2.005E3,1.38E2,2.018E3,9.3E1,5.62E2,7.59E2,1E0,1E0,6E0,2.016E3,3E0,1.104E3,2E0,2.02E3,2.005E3,7.54E2,1.2E2,7E0,2.02E3,1.3E1,1.969E3,5.9E1,1.984E3,1.988E3,1.98E3,6.54E2,7.92E2,7.99E2,2.02E3,2.017E3,1.092E3,2.02E3,7.7E1,7.7E1,2E0,4E0,1.973E3,9.68E2,1.116E3,9.4E1,9.17E2,2.019E3,1.58E2,8.9E2,1.122E3,1.51E2,1.122E3,9.6E1,1.092E3,1.9398475E4,1.13E2,1.064E3,-6.4978394E3,-4.8539775E3,-7.795694E3,-6.5051377E3,-4.9521484E3,-3.1982725E3,-6.1330005E3,-5.083268E3,-2.4218894E3,4.0479584E1,-2.2042947E3,-3.6156177E3,-3.0577117E3,-4.2961074E3,-4.8841533E3,-5.921417E3,-1.879577E3,3.3159927E3,8.4014594E2,4.905926E3,-4.851419E3,-7.29129E3,-4.5731064E3,-3.488323E3,-2.5226055E1,4.3841836E3,5.2387163E3,7.1685737E3,7.4032925E3,1.4388304E4,6.009021E3,9.607966E3,1.1791197E4,-2.1205566E3,-2.3243285E2,-2.2811665E3,2.6785945E3,7.0670364E1,6.9836226E3,1.3360687E4,2.3506465E3,-4.076688E2,4.291855E3,9.957716E3,9.655468E3,1.4890659E4,6.16764E3,3.1049028E3,5.798752E3,2.4217888E3,9.978507E3,2.6418156E4,1.2857167E4,9.794487E3,1.2431929E4,1.7554992E4,9.875432E3,7.058685E3,1.2842596E4,1.7143809E4,2.5482957E4,1.7508426E4],"split_indices":[1,2,0,1,9,1,0,2,6,7,2,2,1,2,1,6,6,8,8,0,2,0,6,0,2,2,6,1,0,2,0,2,1,2,2,2,6,6,6,2,2,6,2,1,1,0,0,2,6,6,1,6,2,1,6,6,1,6,1,6,0,1,6,0,0,0,0,0,0,0,0,0,0,0,0,0,0,0,0,0,0,0,0,0,0,0,0,0,0,0,0,0,0,0,0,0,0,0,0,0,0,0,0,0,0,0,0,0,0,0,0,0,0,0,0,0,0,0,0,0,0,0,0,0,0],"split_type":[0,0,0,0,0,0,0,0,0,0,0,0,0,0,0,0,0,0,0,0,0,0,0,0,0,0,0,0,0,0,0,0,0,0,0,0,0,0,0,0,0,0,0,0,0,0,0,0,0,0,0,0,0,0,0,0,0,0,0,0,